{"learner":{"attributes":{"best_iteration":"196","best_score":"4084.852762413102","scikit_learn":"{\"_estimator_type\": \"regressor\"}"},"feature_names":["hour","dayofweek","quarter","month","year","dayofyear","lag_24h","lag_7d"],"feature_types":["int","int","int","int","int","int","float","float"],"gradient_booster":{"model":{"cats":{"enc":[],"feature_segments":[],"sorted_idx":[]},"gbtree_model_param":{"num_parallel_tree":"1","num_trees":"247"},"iteration_indptr":[0,1,2,3,4,5,6,7,8,9,10,11,12,13,14,15,16,17,18,19,20,21,22,23,24,25,26,27,28,29,30,31,32,33,34,35,36,37,38,39,40,41,42,43,44,45,46,47,48,49,50,51,52,53,54,55,56,57,58,59,60,61,62,63,64,65,66,67,68,69,70,71,72,73,74,75,76,77,78,79,80,81,82,83,84,85,86,87,88,89,90,91,92,93,94,95,96,97,98,99,100,101,102,103,104,105,106,107,108,109,110,111,112,113,114,115,116,117,118,119,120,121,122,123,124,125,126,127,128,129,130,131,132,133,134,135,136,137,138,139,140,141,142,143,144,145,146,147,148,149,150,151,152,153,154,155,156,157,158,159,160,161,162,163,164,165,166,167,168,169,170,171,172,173,174,175,176,177,178,179,180,181,182,183,184,185,186,187,188,189,190,191,192,193,194,195,196,197,198,199,200,201,202,203,204,205,206,207,208,209,210,211,212,213,214,215,216,217,218,219,220,221,222,223,224,225,226,227,228,229,230,231,232,233,234,235,236,237,238,239,240,241,242,243,244,245,246,247],"tree_info":[0,0,0,0,0,0,0,0,0,0,0,0,0,0,0,0,0,0,0,0,0,0,0,0,0,0,0,0,0,0,0,0,0,0,0,0,0,0,0,0,0,0,0,0,0,0,0,0,0,0,0,0,0,0,0,0,0,0,0,0,0,0,0,0,0,0,0,0,0,0,0,0,0,0,0,0,0,0,0,0,0,0,0,0,0,0,0,0,0,0,0,0,0,0,0,0,0,0,0,0,0,0,0,0,0,0,0,0,0,0,0,0,0,0,0,0,0,0,0,0,0,0,0,0,0,0,0,0,0,0,0,0,0,0,0,0,0,0,0,0,0,0,0,0,0,0,0,0,0,0,0,0,0,0,0,0,0,0,0,0,0,0,0,0,0,0,0,0,0,0,0,0,0,0,0,0,0,0,0,0,0,0,0,0,0,0,0,0,0,0,0,0,0,0,0,0,0,0,0,0,0,0,0,0,0,0,0,0,0,0,0,0,0,0,0,0,0,0,0,0,0,0,0,0,0,0,0,0,0,0,0,0,0,0,0,0,0,0,0,0,0,0,0,0,0,0,0],"trees":[{"base_weights":[8.5952866E-5,-3.17165E3,6.4899565E3,-7.0653374E3,-1.291305E3,4.372181E3,1.2103314E4,-8.924851E3,-5.565649E3,-3.2571052E3,-1.2555178E2,5.0403296E3,6.44499E2,1.0482005E4,1.6714893E4,-9.777783E3,-8.0000566E3,-6.265779E3,-3.8513445E3,-2.532323E3,-5.1450913E3,-1.2358629E3,9.171829E2,3.5109304E3,6.612523E3,-6.675235E2,2.2845322E3,1.1309815E4,6.398243E3,1.7695453E4,1.2092651E4,-1.0038001E4,-8.445233E3,-8.334449E3,-5.7753228E3,-6.9736685E3,-5.7528315E3,-2.676374E3,-4.8536206E3,-3.4756582E3,-1.1046329E3,-6.6518057E3,-4.4385913E3,-2.6403284E3,-9.050414E2,1.1467195E3,-1.9961659E3,2.8963582E3,4.173081E3,5.954527E3,7.9228975E3,-2.6755996E3,-2.5247192E2,1.2245483E3,3.4832998E3,1.0165867E4,1.294059E4,5.0191016E3,7.8805737E3,1.6276242E4,2.0456248E4,1.091985E4,1.4281243E4,-3.1660983E2,-2.8825098E2,-2.0978566E2,-2.742124E2,-2.6686505E2,-2.4126465E2,-1.1601784E2,-2.0406425E2,-2.016707E2,-2.4135942E2,-1.8910306E2,-1.5735815E2,-6.404724E1,-1.3824365E2,-1.6864738E2,-1.3361926E2,-1.21449425E2,-8.787822E1,-4.83726E1,6.9837886E-1,-1.3732825E2,-2.1340625E2,-1.4751076E2,-1.0192828E2,-1.0013356E2,-5.11983E1,-2.425668E1,-1.2419742E2,2.301329E1,7.07274E1,2.7414837E0,-6.661132E1,7.760635E1,1.16117966E2,1.15481705E2,1.5876358E2,1.6164795E2,2.0136156E2,2.2335916E2,2.66626E2,4.1869534E1,-8.763335E1,-3.9483303E1,1.0531272E1,2.2840149E1,8.498865E1,7.9655685E1,1.251513E2,2.6837396E2,3.1742056E2,3.6663736E2,4.1727005E2,1.1608911E2,1.8758015E2,1.7798482E2,2.476156E2,4.062137E2,4.9714523E2,5.6629956E2,6.5937714E2,3.1142325E2,4.1162186E2,3.537775E2,4.479346E2],"categories":[],"categories_nodes":[],"categories_segments":[],"categories_sizes":[],"default_left":[0,0,0,0,0,0,0,0,0,0,0,0,0,0,0,0,0,0,0,0,0,0,0,0,0,0,0,0,0,0,0,0,0,0,0,0,0,0,0,0,0,0,0,0,0,0,0,0,0,0,0,0,0,0,0,0,0,0,0,0,0,0,0,0,0,0,0,0,0,0,0,0,0,0,0,0,0,0,0,0,0,0,0,0,0,0,0,0,0,0,0,0,0,0,0,0,0,0,0,0,0,0,0,0,0,0,0,0,0,0,0,0,0,0,0,0,0,0,0,0,0,0,0,0,0,0,0],"id":0,"left_children":[1,3,5,7,9,11,13,15,17,19,21,23,25,27,29,31,33,35,37,39,41,43,45,47,49,51,53,55,57,59,61,63,65,67,69,71,73,75,77,79,81,83,85,87,89,91,93,95,97,99,101,103,105,107,109,111,113,115,117,119,121,123,125,-1,-1,-1,-1,-1,-1,-1,-1,-1,-1,-1,-1,-1,-1,-1,-1,-1,-1,-1,-1,-1,-1,-1,-1,-1,-1,-1,-1,-1,-1,-1,-1,-1,-1,-1,-1,-1,-1,-1,-1,-1,-1,-1,-1,-1,-1,-1,-1,-1,-1,-1,-1,-1,-1,-1,-1,-1,-1,-1,-1,-1,-1,-1,-1],"loss_changes":[2.972455E12,7.101885E11,5.634898E11,8.804237E10,1.4990479E11,8.572731E10,9.69111E10,1.1044389E10,2.0966736E10,3.3308344E10,4.7543386E10,7.016199E10,1.1261687E10,3.2414958E10,1.508737E10,2.4572068E9,4.9890263E9,4.4682445E9,5.9623834E9,2.369699E10,7.16007E9,9.238116E9,1.4163775E10,6.0097987E9,1.236199E10,2.4230124E9,2.9513236E9,1.4772077E10,3.276374E9,1.0571153E10,1.3687276E9,1.2562596E9,1.1517215E9,8.9338675E8,1.713496E9,1.3495828E9,1.9804979E9,2.4356526E9,8.149688E8,3.3035305E9,4.0109307E9,2.0303872E9,2.2747791E9,2.4631112E9,5.0211277E9,9.021669E9,7.242803E8,2.3049667E9,2.5590088E9,4.075389E9,2.1488927E9,5.0184832E8,1.5481331E9,9.187003E8,6.108805E8,2.284028E9,2.1219901E9,1.1711304E9,5.181358E8,1.264386E9,1.8488689E9,4.4793037E8,1.5387853E8,0E0,0E0,0E0,0E0,0E0,0E0,0E0,0E0,0E0,0E0,0E0,0E0,0E0,0E0,0E0,0E0,0E0,0E0,0E0,0E0,0E0,0E0,0E0,0E0,0E0,0E0,0E0,0E0,0E0,0E0,0E0,0E0,0E0,0E0,0E0,0E0,0E0,0E0,0E0,0E0,0E0,0E0,0E0,0E0,0E0,0E0,0E0,0E0,0E0,0E0,0E0,0E0,0E0,0E0,0E0,0E0,0E0,0E0,0E0,0E0,0E0,0E0,0E0,0E0],"parents":[2147483647,0,0,1,1,2,2,3,3,4,4,5,5,6,6,7,7,8,8,9,9,10,10,11,11,12,12,13,13,14,14,15,15,16,16,17,17,18,18,19,19,20,20,21,21,22,22,23,23,24,24,25,25,26,26,27,27,28,28,29,29,30,30,31,31,32,32,33,33,34,34,35,35,36,36,37,37,38,38,39,39,40,40,41,41,42,42,43,43,44,44,45,45,46,46,47,47,48,48,49,49,50,50,51,51,52,52,53,53,54,54,55,55,56,56,57,57,58,58,59,59,60,60,61,61,62,62],"right_children":[2,4,6,8,10,12,14,16,18,20,22,24,26,28,30,32,34,36,38,40,42,44,46,48,50,52,54,56,58,60,62,64,66,68,70,72,74,76,78,80,82,84,86,88,90,92,94,96,98,100,102,104,106,108,110,112,114,116,118,120,122,124,126,-1,-1,-1,-1,-1,-1,-1,-1,-1,-1,-1,-1,-1,-1,-1,-1,-1,-1,-1,-1,-1,-1,-1,-1,-1,-1,-1,-1,-1,-1,-1,-1,-1,-1,-1,-1,-1,-1,-1,-1,-1,-1,-1,-1,-1,-1,-1,-1,-1,-1,-1,-1,-1,-1,-1,-1,-1,-1,-1,-1,-1,-1,-1,-1],"split_conditions":[3.4026E4,2.6948E4,4.1091E4,2.4071E4,2.977E4,6E0,4.7793E4,2.264E4,8E0,6E0,3.1204E4,3.6677E4,3.6892E4,6E0,6E0,6E0,7E0,2.5321E4,5E0,2.9658E4,2.5512E4,7E0,6E0,3.5268E4,3.917E4,2.7486E4,1.7E1,4.4026E4,4.3671E4,5.1891E4,5.1891E4,2.1626E4,5E0,2.3151E4,5E0,6E0,2.5613E4,2.2E1,2.6551E4,2.8192E4,3.1819E4,6E0,3.1982E4,2.9475E4,6E0,4E0,5E0,4E0,4E0,3.7802E4,4.0646E4,6E0,1.3E1,3.9681E4,3.8593E4,6E0,4.5944E4,1.8E1,1.3E1,3.5874E4,5.3828E4,4.4942E4,2.006E3,-3.1660983E2,-2.8825098E2,-2.0978566E2,-2.742124E2,-2.6686505E2,-2.4126465E2,-1.1601784E2,-2.0406425E2,-2.016707E2,-2.4135942E2,-1.8910306E2,-1.5735815E2,-6.404724E1,-1.3824365E2,-1.6864738E2,-1.3361926E2,-1.21449425E2,-8.787822E1,-4.83726E1,6.9837886E-1,-1.3732825E2,-2.1340625E2,-1.4751076E2,-1.0192828E2,-1.0013356E2,-5.11983E1,-2.425668E1,-1.2419742E2,2.301329E1,7.07274E1,2.7414837E0,-6.661132E1,7.760635E1,1.16117966E2,1.15481705E2,1.5876358E2,1.6164795E2,2.0136156E2,2.2335916E2,2.66626E2,4.1869534E1,-8.763335E1,-3.9483303E1,1.0531272E1,2.2840149E1,8.498865E1,7.9655685E1,1.251513E2,2.6837396E2,3.1742056E2,3.6663736E2,4.1727005E2,1.1608911E2,1.8758015E2,1.7798482E2,2.476156E2,4.062137E2,4.9714523E2,5.6629956E2,6.5937714E2,3.1142325E2,4.1162186E2,3.537775E2,4.479346E2],"split_indices":[6,6,6,6,7,1,6,6,0,1,6,6,6,1,1,0,0,7,1,6,7,0,1,6,6,7,0,6,6,6,6,6,1,7,1,1,6,0,7,6,6,0,6,6,1,1,0,1,1,7,7,0,0,6,6,3,6,0,0,7,6,7,4,0,0,0,0,0,0,0,0,0,0,0,0,0,0,0,0,0,0,0,0,0,0,0,0,0,0,0,0,0,0,0,0,0,0,0,0,0,0,0,0,0,0,0,0,0,0,0,0,0,0,0,0,0,0,0,0,0,0,0,0,0,0,0,0],"split_type":[0,0,0,0,0,0,0,0,0,0,0,0,0,0,0,0,0,0,0,0,0,0,0,0,0,0,0,0,0,0,0,0,0,0,0,0,0,0,0,0,0,0,0,0,0,0,0,0,0,0,0,0,0,0,0,0,0,0,0,0,0,0,0,0,0,0,0,0,0,0,0,0,0,0,0,0,0,0,0,0,0,0,0,0,0,0,0,0,0,0,0,0,0,0,0,0,0,0,0,0,0,0,0,0,0,0,0,0,0,0,0,0,0,0,0,0,0,0,0,0,0,0,0,0,0,0,0],"sum_hessian":[1.44405E5,9.7001E4,4.7404E4,3.1588E4,6.5413E4,3.442E4,1.2984E4,1.41E4,1.7488E4,2.435E4,4.1063E4,2.9188E4,5.232E3,9.609E3,3.375E3,7.33E3,6.77E3,1.2415E4,5.073E3,1.7597E4,6.753E3,1.9887E4,2.1176E4,1.4797E4,1.4391E4,2.907E3,2.325E3,7.988E3,1.621E3,2.782E3,5.93E2,6.127E3,1.203E3,5.883E3,8.87E2,5.211E3,7.204E3,2.337E3,2.736E3,1.0595E4,7.002E3,2.153E3,4.6E3,3.79E3,1.6097E4,1.963E4,1.546E3,7.677E3,7.12E3,9.584E3,4.807E3,4.97E2,2.41E3,1.235E3,1.09E3,4.699E3,3.289E3,8.42E2,7.79E2,1.842E3,9.4E2,3.9E2,2.03E2,2.774E3,3.353E3,3.93E2,8.1E2,2.005E3,3.878E3,3.12E2,5.75E2,4.227E3,9.84E2,3.45E3,3.754E3,1.827E3,5.1E2,9.32E2,1.804E3,5.17E3,5.425E3,4.828E3,2.174E3,3.94E2,1.759E3,3.149E3,1.451E3,2.168E3,1.622E3,1.5632E4,4.65E2,1.4946E4,4.684E3,1.5E2,1.396E3,5.829E3,1.848E3,5.526E3,1.594E3,5.489E3,4.095E3,3.221E3,1.586E3,2.8E1,4.69E2,8.72E2,1.538E3,9.6E2,2.75E2,4.97E2,5.93E2,1.198E3,3.501E3,1.895E3,1.394E3,4.38E2,4.04E2,1.28E2,6.51E2,1.84E2,1.658E3,4.68E2,4.72E2,3.31E2,5.9E1,4.6E1,1.57E2],"tree_param":{"num_deleted":"0","num_feature":"8","num_nodes":"127","size_leaf_vector":"1"}},{"base_weights":[2.0590289E-2,-3.0765452E3,6.295412E3,-6.8534795E3,-1.2525833E3,4.241061E3,1.1740659E4,-8.657241E3,-5.398754E3,-3.159427E3,-1.2179216E2,4.889165E3,6.252095E2,1.0167764E4,1.6214529E4,-9.484599E3,-7.7601777E3,-6.0778696E3,-3.7359038E3,-2.4563677E3,-4.990827E3,-1.0971821E3,9.9991266E2,3.4056343E3,6.4142065E3,-6.4752386E2,2.2161309E3,1.0970693E4,6.2067456E3,1.7165354E4,1.17324375E4,-9.73696E3,-8.192278E3,-8.0845024E3,-5.6024233E3,-6.5906055E3,-5.409159E3,-2.5961694E3,-4.708123E3,-3.2226665E3,-8.018934E2,-6.500073E3,-4.326635E3,-2.4660269E3,-7.8918427E2,1.2309559E3,-1.855868E3,2.8094934E3,4.0479265E3,5.5105083E3,7.3221733E3,-2.7594763E3,-2.759204E2,1.0966649E3,3.2857156E3,9.717906E3,1.2376453E4,4.8688887E3,7.6447026E3,1.5788446E4,1.9843863E4,1.0594103E4,1.3856735E4,-3.0711496E2,-2.79606E2,-2.0350807E2,-2.6599615E2,-2.5886307E2,-2.3402861E2,-1.1254842E2,-1.9795294E2,-2.1422258E2,-1.8315657E2,-1.6859781E2,-1.1203825E2,-6.2126884E1,-1.3410445E2,-1.6359341E2,-1.296129E2,-1.16853806E2,-7.9889084E1,-3.6536957E1,7.66633E0,-1.3534386E2,-2.0826974E2,-1.4376727E2,-9.883109E1,-9.713096E1,-4.7031902E1,-2.0676525E1,-1.17362526E2,2.6178886E1,7.124019E1,5.5966096E0,-6.222497E1,7.514711E1,1.13528305E2,1.1201786E2,1.5400366E2,1.5411049E2,2.0320454E2,2.0404106E2,2.4581589E2,4.7294453E1,-9.116898E1,-3.901822E1,9.416713E0,1.9179733E1,8.05751E1,7.488803E1,1.1870194E2,2.5893652E2,3.0466907E2,3.5141263E2,4.0476096E2,1.1261435E2,1.8196663E2,1.8461908E2,2.4323148E2,3.9409317E2,4.8223984E2,5.493468E2,6.396376E2,3.0210867E2,3.99479E2,3.4338995E2,4.3458157E2],"categories":[],"categories_nodes":[],"categories_segments":[],"categories_sizes":[],"default_left":[0,0,0,0,0,0,0,0,0,0,0,0,0,0,0,0,0,0,0,0,0,0,0,0,0,0,0,0,0,0,0,0,0,0,0,0,0,0,0,0,0,0,0,0,0,0,0,0,0,0,0,0,0,0,0,0,0,0,0,0,0,0,0,0,0,0,0,0,0,0,0,0,0,0,0,0,0,0,0,0,0,0,0,0,0,0,0,0,0,0,0,0,0,0,0,0,0,0,0,0,0,0,0,0,0,0,0,0,0,0,0,0,0,0,0,0,0,0,0,0,0,0,0,0,0,0,0],"id":1,"left_children":[1,3,5,7,9,11,13,15,17,19,21,23,25,27,29,31,33,35,37,39,41,43,45,47,49,51,53,55,57,59,61,63,65,67,69,71,73,75,77,79,81,83,85,87,89,91,93,95,97,99,101,103,105,107,109,111,113,115,117,119,121,123,125,-1,-1,-1,-1,-1,-1,-1,-1,-1,-1,-1,-1,-1,-1,-1,-1,-1,-1,-1,-1,-1,-1,-1,-1,-1,-1,-1,-1,-1,-1,-1,-1,-1,-1,-1,-1,-1,-1,-1,-1,-1,-1,-1,-1,-1,-1,-1,-1,-1,-1,-1,-1,-1,-1,-1,-1,-1,-1,-1,-1,-1,-1,-1,-1],"loss_changes":[2.7969016E12,6.682367E11,5.302439E11,8.284196E10,1.4104802E11,8.066079E10,9.12096E10,1.0392109E10,1.972709E10,3.134169E10,4.49292E10,6.601664E10,1.0597313E10,3.0495736E10,1.4186054E10,2.3110615E9,4.6931313E9,4.221436E9,5.6101274E9,2.2308536E10,6.742278E9,9.258531E9,1.2604637E10,5.6547246E9,1.1768693E10,2.2814628E9,2.7814636E9,1.3949207E10,3.0831493E9,9.950593E9,1.2895928E9,1.1820728E9,1.083433E9,8.4076134E8,1.612202E9,1.8317967E9,1.8827837E9,2.2921544E9,7.669637E8,4.5162824E9,2.451432E9,1.782145E9,2.2398075E9,2.791252E9,5.595424E9,7.239928E9,6.379612E8,2.2701875E9,2.4080548E9,3.3695498E9,3.2020562E9,5.3194854E8,1.4956233E9,8.2537306E8,6.1997466E8,1.9240059E9,2.6224886E9,1.1021087E9,4.8848486E8,1.1877745E9,1.7397842E9,4.2337485E8,1.4363443E8,0E0,0E0,0E0,0E0,0E0,0E0,0E0,0E0,0E0,0E0,0E0,0E0,0E0,0E0,0E0,0E0,0E0,0E0,0E0,0E0,0E0,0E0,0E0,0E0,0E0,0E0,0E0,0E0,0E0,0E0,0E0,0E0,0E0,0E0,0E0,0E0,0E0,0E0,0E0,0E0,0E0,0E0,0E0,0E0,0E0,0E0,0E0,0E0,0E0,0E0,0E0,0E0,0E0,0E0,0E0,0E0,0E0,0E0,0E0,0E0,0E0,0E0,0E0,0E0],"parents":[2147483647,0,0,1,1,2,2,3,3,4,4,5,5,6,6,7,7,8,8,9,9,10,10,11,11,12,12,13,13,14,14,15,15,16,16,17,17,18,18,19,19,20,20,21,21,22,22,23,23,24,24,25,25,26,26,27,27,28,28,29,29,30,30,31,31,32,32,33,33,34,34,35,35,36,36,37,37,38,38,39,39,40,40,41,41,42,42,43,43,44,44,45,45,46,46,47,47,48,48,49,49,50,50,51,51,52,52,53,53,54,54,55,55,56,56,57,57,58,58,59,59,60,60,61,61,62,62],"right_children":[2,4,6,8,10,12,14,16,18,20,22,24,26,28,30,32,34,36,38,40,42,44,46,48,50,52,54,56,58,60,62,64,66,68,70,72,74,76,78,80,82,84,86,88,90,92,94,96,98,100,102,104,106,108,110,112,114,116,118,120,122,124,126,-1,-1,-1,-1,-1,-1,-1,-1,-1,-1,-1,-1,-1,-1,-1,-1,-1,-1,-1,-1,-1,-1,-1,-1,-1,-1,-1,-1,-1,-1,-1,-1,-1,-1,-1,-1,-1,-1,-1,-1,-1,-1,-1,-1,-1,-1,-1,-1,-1,-1,-1,-1,-1,-1,-1,-1,-1,-1,-1,-1,-1,-1,-1,-1],"split_conditions":[3.4026E4,2.6948E4,4.1091E4,2.4071E4,2.977E4,6E0,4.7793E4,2.264E4,8E0,6E0,3.1458E4,3.6677E4,3.6892E4,6E0,6E0,6E0,7E0,2.639E4,5E0,3.0121E4,2.5418E4,7E0,6E0,3.5268E4,3.8463E4,2.7171E4,1.6E1,4.3671E4,4.3671E4,5.1891E4,5.1891E4,2.1626E4,5E0,2.3151E4,5E0,2.5228E4,7E0,2.2E1,2.6551E4,2.8266E4,3.2246E4,6E0,3.1982E4,2.9475E4,6E0,4E0,6E0,3.7318E4,4E0,4E0,3.9669E4,6E0,1.3E1,3.9681E4,3.8593E4,1.62E2,4.5944E4,1.8E1,1.4E1,3.5874E4,5.3828E4,4.4942E4,2.006E3,-3.0711496E2,-2.79606E2,-2.0350807E2,-2.6599615E2,-2.5886307E2,-2.3402861E2,-1.1254842E2,-1.9795294E2,-2.1422258E2,-1.8315657E2,-1.6859781E2,-1.1203825E2,-6.2126884E1,-1.3410445E2,-1.6359341E2,-1.296129E2,-1.16853806E2,-7.9889084E1,-3.6536957E1,7.66633E0,-1.3534386E2,-2.0826974E2,-1.4376727E2,-9.883109E1,-9.713096E1,-4.7031902E1,-2.0676525E1,-1.17362526E2,2.6178886E1,7.124019E1,5.5966096E0,-6.222497E1,7.514711E1,1.13528305E2,1.1201786E2,1.5400366E2,1.5411049E2,2.0320454E2,2.0404106E2,2.4581589E2,4.7294453E1,-9.116898E1,-3.901822E1,9.416713E0,1.9179733E1,8.05751E1,7.488803E1,1.1870194E2,2.5893652E2,3.0466907E2,3.5141263E2,4.0476096E2,1.1261435E2,1.8196663E2,1.8461908E2,2.4323148E2,3.9409317E2,4.8223984E2,5.493468E2,6.396376E2,3.0210867E2,3.99479E2,3.4338995E2,4.3458157E2],"split_indices":[6,6,6,6,7,1,6,6,0,1,6,6,6,1,1,0,0,7,1,6,7,0,1,6,6,7,0,6,6,6,6,6,1,7,1,6,0,0,7,6,6,0,6,6,1,1,0,7,1,1,7,0,0,6,6,5,6,0,0,7,6,7,4,0,0,0,0,0,0,0,0,0,0,0,0,0,0,0,0,0,0,0,0,0,0,0,0,0,0,0,0,0,0,0,0,0,0,0,0,0,0,0,0,0,0,0,0,0,0,0,0,0,0,0,0,0,0,0,0,0,0,0,0,0,0,0,0],"split_type":[0,0,0,0,0,0,0,0,0,0,0,0,0,0,0,0,0,0,0,0,0,0,0,0,0,0,0,0,0,0,0,0,0,0,0,0,0,0,0,0,0,0,0,0,0,0,0,0,0,0,0,0,0,0,0,0,0,0,0,0,0,0,0,0,0,0,0,0,0,0,0,0,0,0,0,0,0,0,0,0,0,0,0,0,0,0,0,0,0,0,0,0,0,0,0,0,0,0,0,0,0,0,0,0,0,0,0,0,0,0,0,0,0,0,0,0,0,0,0,0,0,0,0,0,0,0,0],"sum_hessian":[1.44405E5,9.7001E4,4.7404E4,3.1588E4,6.5413E4,3.442E4,1.2984E4,1.41E4,1.7488E4,2.435E4,4.1063E4,2.9188E4,5.232E3,9.609E3,3.375E3,7.33E3,6.77E3,1.2415E4,5.073E3,1.7597E4,6.753E3,2.1964E4,1.9099E4,1.4797E4,1.4391E4,2.907E3,2.325E3,7.988E3,1.621E3,2.782E3,5.93E2,6.127E3,1.203E3,5.883E3,8.87E2,7.022E3,5.393E3,2.337E3,2.736E3,1.2026E4,5.571E3,2.061E3,4.692E3,4.033E3,1.7931E4,1.767E4,1.429E3,7.677E3,7.12E3,7.216E3,7.175E3,4.34E2,2.473E3,1.137E3,1.188E3,4.228E3,3.76E3,8.42E2,7.79E2,1.842E3,9.4E2,3.9E2,2.03E2,2.774E3,3.353E3,3.93E2,8.1E2,2.005E3,3.878E3,3.12E2,5.75E2,3.285E3,3.737E3,4.788E3,6.05E2,1.827E3,5.1E2,9.32E2,1.804E3,5.46E3,6.566E3,3.998E3,1.573E3,3.77E2,1.684E3,3.231E3,1.461E3,2.168E3,1.865E3,1.7376E4,5.55E2,1.3456E4,4.214E3,1.38E2,1.291E3,5.852E3,1.825E3,5.526E3,1.594E3,5.573E3,1.643E3,4.497E3,2.678E3,2.6E1,4.08E2,9.03E2,1.57E3,8.84E2,2.53E2,5.48E2,6.4E2,1.22E3,3.008E3,2.366E3,1.394E3,4.38E2,4.04E2,1.88E2,5.91E2,1.84E2,1.658E3,4.68E2,4.72E2,3.31E2,5.9E1,4.6E1,1.57E2],"tree_param":{"num_deleted":"0","num_feature":"8","num_nodes":"127","size_leaf_vector":"1"}},{"base_weights":[4.048223E-2,-2.9842913E3,6.1066987E3,-6.6479707E3,-1.2150222E3,4.0570134E3,1.1244562E4,-8.397655E3,-5.236858E3,-3.0646775E3,-1.1814489E2,4.6854595E3,5.588676E2,9.401925E3,1.4904548E4,-9.200205E3,-7.5274907E3,-5.8955884E3,-3.623923E3,-2.3826897E3,-4.841189E3,-1.3480565E3,7.265559E2,3.3034963E3,6.1531987E3,-6.281231E2,2.0893376E3,1.0157655E4,5.5859976E3,1.5811212E4,1.065023E4,-9.368007E3,-7.3623066E3,-7.8420503E3,-5.4347E3,-6.5659375E3,-5.409848E3,-2.5183684E3,-4.566986E3,-3.2724792E3,-1.0360391E3,-6.2599688E3,-4.1759224E3,-2.655251E3,-1.01270917E3,9.255439E2,-1.9585565E3,2.725234E3,3.9265264E3,5.345242E3,7.020769E3,-2.521376E3,-2.3680493E2,1.00677765E3,3.134211E3,9.068682E3,1.126824E4,4.6723735E3,7.026043E3,1.422343E4,1.8399547E4,9.674177E3,1.3444847E4,-2.976285E2,-2.7043796E2,-1.4783965E2,-2.439602E2,-2.5110104E2,-2.2700954E2,-1.0918275E2,-1.9202466E2,-1.896534E2,-2.2821867E2,-1.6739607E2,-1.168935E2,-6.02641E1,-1.3008922E2,-1.2377393E2,-1.5566632E2,-1.1232559E2,-7.976079E1,-5.1133995E1,-8.120811E0,-1.2916133E2,-2.0085251E2,-1.3877515E2,-9.5909645E1,-1.0415693E2,-6.238018E1,-2.7796968E1,-1.2220398E2,1.0377209E1,5.127491E1,-2.6014245E0,-6.524303E1,7.2780266E1,1.1001699E2,1.01870766E2,1.361108E2,1.4948799E2,1.9711209E2,1.9677458E2,2.3582422E2,3.9465427E1,-8.2582664E1,-3.7130997E1,9.933244E0,1.4420401E2,2.5246342E1,7.264547E1,1.13465515E2,2.6445435E2,3.1903577E2,2.9055103E2,3.4841272E2,1.0755544E2,1.752166E2,2.0206412E2,2.9298923E2,3.3595724E2,4.3364713E2,5.170036E2,6.2048914E2,2.796389E2,3.6815756E2,3.3330743E2,4.2162665E2],"categories":[],"categories_nodes":[],"categories_segments":[],"categories_sizes":[],"default_left":[0,0,0,0,0,0,0,0,0,0,0,0,0,0,0,0,0,0,0,0,0,0,0,0,0,0,0,0,0,0,0,0,0,0,0,0,0,0,0,0,0,0,0,0,0,0,0,0,0,0,0,0,0,0,0,0,0,0,0,0,0,0,0,0,0,0,0,0,0,0,0,0,0,0,0,0,0,0,0,0,0,0,0,0,0,0,0,0,0,0,0,0,0,0,0,0,0,0,0,0,0,0,0,0,0,0,0,0,0,0,0,0,0,0,0,0,0,0,0,0,0,0,0,0,0,0,0],"id":2,"left_children":[1,3,5,7,9,11,13,15,17,19,21,23,25,27,29,31,33,35,37,39,41,43,45,47,49,51,53,55,57,59,61,63,65,67,69,71,73,75,77,79,81,83,85,87,89,91,93,95,97,99,101,103,105,107,109,111,113,115,117,119,121,123,125,-1,-1,-1,-1,-1,-1,-1,-1,-1,-1,-1,-1,-1,-1,-1,-1,-1,-1,-1,-1,-1,-1,-1,-1,-1,-1,-1,-1,-1,-1,-1,-1,-1,-1,-1,-1,-1,-1,-1,-1,-1,-1,-1,-1,-1,-1,-1,-1,-1,-1,-1,-1,-1,-1,-1,-1,-1,-1,-1,-1,-1,-1,-1,-1],"loss_changes":[2.6317155E12,6.287623E11,4.991767E11,7.7949305E10,1.32714504E11,7.449661E10,9.102557E10,9.778233E9,1.8560483E10,2.9491134E10,4.266267E10,5.8248397E10,9.37888E9,2.5880297E10,1.7285644E10,2.191917E9,4.4148E9,4.0073298E9,5.2786913E9,2.108316E10,6.3487345E9,7.326763E9,1.3009474E10,5.320655E9,9.726853E9,2.153836E9,2.5475615E9,8.975548E9,1.9261932E9,1.5059255E10,2.046632E9,1.2225741E9,1.1178701E9,7.9118336E8,1.5169004E9,1.2770836E9,1.8321572E9,2.1571144E9,7.2954675E8,3.057877E9,3.5821184E9,1.803092E9,2.0116767E9,1.5979704E9,3.505072E9,1.0294647E10,6.7972915E8,2.1552988E9,2.2923264E9,3.1707791E9,2.5519718E9,4.457349E8,1.3708737E9,6.922835E8,5.20534E8,1.4128906E9,1.9180421E9,1.1398738E9,3.9285555E8,1.4590607E9,3.408593E9,4.3104256E8,1.3407437E8,0E0,0E0,0E0,0E0,0E0,0E0,0E0,0E0,0E0,0E0,0E0,0E0,0E0,0E0,0E0,0E0,0E0,0E0,0E0,0E0,0E0,0E0,0E0,0E0,0E0,0E0,0E0,0E0,0E0,0E0,0E0,0E0,0E0,0E0,0E0,0E0,0E0,0E0,0E0,0E0,0E0,0E0,0E0,0E0,0E0,0E0,0E0,0E0,0E0,0E0,0E0,0E0,0E0,0E0,0E0,0E0,0E0,0E0,0E0,0E0,0E0,0E0,0E0,0E0],"parents":[2147483647,0,0,1,1,2,2,3,3,4,4,5,5,6,6,7,7,8,8,9,9,10,10,11,11,12,12,13,13,14,14,15,15,16,16,17,17,18,18,19,19,20,20,21,21,22,22,23,23,24,24,25,25,26,26,27,27,28,28,29,29,30,30,31,31,32,32,33,33,34,34,35,35,36,36,37,37,38,38,39,39,40,40,41,41,42,42,43,43,44,44,45,45,46,46,47,47,48,48,49,49,50,50,51,51,52,52,53,53,54,54,55,55,56,56,57,57,58,58,59,59,60,60,61,61,62,62],"right_children":[2,4,6,8,10,12,14,16,18,20,22,24,26,28,30,32,34,36,38,40,42,44,46,48,50,52,54,56,58,60,62,64,66,68,70,72,74,76,78,80,82,84,86,88,90,92,94,96,98,100,102,104,106,108,110,112,114,116,118,120,122,124,126,-1,-1,-1,-1,-1,-1,-1,-1,-1,-1,-1,-1,-1,-1,-1,-1,-1,-1,-1,-1,-1,-1,-1,-1,-1,-1,-1,-1,-1,-1,-1,-1,-1,-1,-1,-1,-1,-1,-1,-1,-1,-1,-1,-1,-1,-1,-1,-1,-1,-1,-1,-1,-1,-1,-1,-1,-1,-1,-1,-1,-1,-1,-1,-1],"split_conditions":[3.4026E4,2.6948E4,4.0877E4,2.4071E4,2.977E4,6E0,4.6473E4,2.264E4,8E0,6E0,3.0786E4,3.6677E4,3.6892E4,6E0,6E0,7E0,7E0,2.5321E4,5E0,2.9658E4,2.5512E4,7E0,6E0,3.5268E4,3.8463E4,2.7486E4,1.6E1,4.299E4,4.3671E4,5.0496E4,5.1891E4,2.1467E4,5E0,2.3151E4,5E0,6E0,7E0,2.2E1,2.013E3,8E0,3.1157E4,6E0,3.1982E4,2.8669E4,6E0,3.2534E4,5E0,4E0,3.5784E4,4E0,3.9858E4,6E0,1.3E1,6E0,3.8593E4,4.6531E4,1.6E2,1.8E1,4.5955E4,1.6E2,5.3828E4,4.6531E4,2.006E3,-2.976285E2,-2.7043796E2,-1.4783965E2,-2.439602E2,-2.5110104E2,-2.2700954E2,-1.0918275E2,-1.9202466E2,-1.896534E2,-2.2821867E2,-1.6739607E2,-1.168935E2,-6.02641E1,-1.3008922E2,-1.2377393E2,-1.5566632E2,-1.1232559E2,-7.976079E1,-5.1133995E1,-8.120811E0,-1.2916133E2,-2.0085251E2,-1.3877515E2,-9.5909645E1,-1.0415693E2,-6.238018E1,-2.7796968E1,-1.2220398E2,1.0377209E1,5.127491E1,-2.6014245E0,-6.524303E1,7.2780266E1,1.1001699E2,1.01870766E2,1.361108E2,1.4948799E2,1.9711209E2,1.9677458E2,2.3582422E2,3.9465427E1,-8.2582664E1,-3.7130997E1,9.933244E0,1.4420401E2,2.5246342E1,7.264547E1,1.13465515E2,2.6445435E2,3.1903577E2,2.9055103E2,3.4841272E2,1.0755544E2,1.752166E2,2.0206412E2,2.9298923E2,3.3595724E2,4.3364713E2,5.170036E2,6.2048914E2,2.796389E2,3.6815756E2,3.3330743E2,4.2162665E2],"split_indices":[6,6,6,6,7,1,6,6,0,1,6,6,6,1,1,0,0,7,1,6,7,0,1,6,6,7,0,6,6,6,6,6,1,7,1,1,0,0,4,0,6,0,6,6,1,6,0,1,7,1,7,0,0,0,6,7,5,0,7,5,6,7,4,0,0,0,0,0,0,0,0,0,0,0,0,0,0,0,0,0,0,0,0,0,0,0,0,0,0,0,0,0,0,0,0,0,0,0,0,0,0,0,0,0,0,0,0,0,0,0,0,0,0,0,0,0,0,0,0,0,0,0,0,0,0,0,0],"split_type":[0,0,0,0,0,0,0,0,0,0,0,0,0,0,0,0,0,0,0,0,0,0,0,0,0,0,0,0,0,0,0,0,0,0,0,0,0,0,0,0,0,0,0,0,0,0,0,0,0,0,0,0,0,0,0,0,0,0,0,0,0,0,0,0,0,0,0,0,0,0,0,0,0,0,0,0,0,0,0,0,0,0,0,0,0,0,0,0,0,0,0,0,0,0,0,0,0,0,0,0,0,0,0,0,0,0,0,0,0,0,0,0,0,0,0,0,0,0,0,0,0,0,0,0,0,0,0],"sum_hessian":[1.44405E5,9.7001E4,4.7404E4,3.1588E4,6.5413E4,3.3887E4,1.3517E4,1.41E4,1.7488E4,2.435E4,4.1063E4,2.8726E4,5.161E3,8.993E3,4.524E3,7.33E3,6.77E3,1.2415E4,5.073E3,1.7597E4,6.753E3,1.6719E4,2.4344E4,1.4797E4,1.3929E4,2.907E3,2.254E3,7.505E3,1.488E3,3.727E3,7.97E2,6.713E3,6.17E2,5.883E3,8.87E2,5.211E3,7.204E3,2.337E3,2.736E3,1.0595E4,7.002E3,2.153E3,4.6E3,3.412E3,1.3307E4,2.2665E4,1.679E3,7.677E3,7.12E3,7.216E3,6.713E3,4.97E2,2.41E3,1.108E3,1.146E3,3.794E3,3.711E3,9.13E2,5.75E2,2.314E3,1.413E3,5.94E2,2.03E2,2.607E3,4.106E3,1.5E2,4.67E2,2.005E3,3.878E3,3.12E2,5.75E2,4.227E3,9.84E2,6.474E3,7.3E2,1.827E3,5.1E2,1.605E3,1.131E3,5.988E3,4.607E3,3.737E3,3.265E3,3.94E2,1.759E3,3.149E3,1.451E3,1.409E3,2.003E3,1.2944E4,3.63E2,1.3029E4,9.636E3,1.74E2,1.505E3,5.829E3,1.848E3,3.812E3,3.308E3,5.573E3,1.643E3,4.338E3,2.375E3,2.8E1,4.69E2,8.72E2,1.538E3,4.5E1,1.063E3,5.48E2,5.98E2,3.271E3,5.23E2,6.7E2,3.041E3,4.75E2,4.38E2,5.23E2,5.2E1,1.68E2,2.146E3,9.41E2,4.72E2,5.27E2,6.7E1,4.6E1,1.57E2],"tree_param":{"num_deleted":"0","num_feature":"8","num_nodes":"127","size_leaf_vector":"1"}},{"base_weights":[5.8325976E-2,-2.894804E3,5.923641E3,-6.227611E3,-1.062904E3,3.9353467E3,1.0907617E4,-7.966078E3,-4.7510693E3,-2.787286E3,-2.3532352E1,4.5449375E3,5.4215686E2,9.120089E3,1.4458143E4,-8.862338E3,-7.0727744E3,-5.4552065E3,-3.2951309E3,-2.0822942E3,-4.5973184E3,-8.4975903E2,1.0736398E3,3.2044202E3,5.968658E3,-6.093039E2,2.0268158E3,9.853088E3,5.41894E3,1.5337386E4,1.033248E4,-9.029527E3,-7.083796E3,-7.399516E3,-5.066295E3,-6.2697607E3,-5.0732285E3,-2.2697563E3,-4.2417607E3,-2.8105476E3,-6.60689E2,-5.797939E3,-3.8784495E3,-1.5304451E3,-2.9874005E2,1.2903009E3,-1.614197E3,2.8299673E3,4.115856E3,5.2868716E3,6.93622E3,-2.6016946E3,-2.587383E2,9.7672736E2,3.0403477E3,8.796775E3,1.0930365E4,4.3825E3,6.622495E3,1.3797058E4,1.7848363E4,9.385039E3,1.3045203E4,-2.8641397E2,-2.5895374E2,-1.4218689E2,-2.3486287E2,-2.3485123E2,-2.1054678E2,-1.02126564E2,-1.7985794E2,-1.7887625E2,-2.2217987E2,-1.6700912E2,-1.3533577E2,-5.4715416E1,-1.251314E2,-1.530372E2,-1.1600222E2,-9.961087E1,-6.7640236E1,-3.1912306E1,8.606945E0,-1.1396598E2,-1.8544296E2,-6.1092606E1,-1.2495108E2,-8.2439415E1,-3.532624E1,-5.2568693E0,-8.6004135E1,2.8457184E1,7.127448E1,8.897674E0,-5.4342876E1,7.0272095E1,1.027849E2,1.1119949E2,1.5310759E2,1.4813489E2,1.9443219E2,2.000356E2,2.5029E2,4.478806E1,-8.596917E1,-3.6697636E1,8.893128E0,-1.4177946E0,4.7322506E1,7.047009E1,1.10067245E2,2.3828897E2,2.7742047E2,2.818475E2,3.3796378E2,1.0402798E2,1.7433543E2,1.4322836E2,2.1172748E2,3.9358603E2,4.4408432E2,5.0150992E2,6.0191376E2,2.6944113E2,3.4566132E2,3.23521E2,4.0905792E2],"categories":[],"categories_nodes":[],"categories_segments":[],"categories_sizes":[],"default_left":[0,0,0,0,0,0,0,0,0,0,0,0,0,0,0,0,0,0,0,0,0,0,0,0,0,0,0,0,0,0,0,0,0,0,0,0,0,0,0,0,0,0,0,0,0,0,0,0,0,0,0,0,0,0,0,0,0,0,0,0,0,0,0,0,0,0,0,0,0,0,0,0,0,0,0,0,0,0,0,0,0,0,0,0,0,0,0,0,0,0,0,0,0,0,0,0,0,0,0,0,0,0,0,0,0,0,0,0,0,0,0,0,0,0,0,0,0,0,0,0,0,0,0,0,0,0,0],"id":3,"left_children":[1,3,5,7,9,11,13,15,17,19,21,23,25,27,29,31,33,35,37,39,41,43,45,47,49,51,53,55,57,59,61,63,65,67,69,71,73,75,77,79,81,83,85,87,89,91,93,95,97,99,101,103,105,107,109,111,113,115,117,119,121,123,125,-1,-1,-1,-1,-1,-1,-1,-1,-1,-1,-1,-1,-1,-1,-1,-1,-1,-1,-1,-1,-1,-1,-1,-1,-1,-1,-1,-1,-1,-1,-1,-1,-1,-1,-1,-1,-1,-1,-1,-1,-1,-1,-1,-1,-1,-1,-1,-1,-1,-1,-1,-1,-1,-1,-1,-1,-1,-1,-1,-1,-1,-1,-1,-1],"loss_changes":[2.476285E12,5.922264E11,4.697222E11,8.827961E10,1.1219088E11,7.009341E10,8.566237E10,1.2587303E10,1.9057574E10,3.0030103E10,3.5406586E10,5.4807036E10,8.825811E9,2.434682E10,1.6255812E10,2.2801285E9,5.1535217E9,3.8699008E9,5.880275E9,1.7540088E10,5.67219E9,8.3561236E9,9.772747E9,5.038752E9,9.152528E9,2.0304591E9,2.3970212E9,8.4451656E9,1.8283766E9,1.4172684E10,1.9285524E9,1.4003077E9,1.1539251E9,1.05814426E9,1.6965386E9,1.3517783E9,2.345304E9,2.4637379E9,9.968804E8,3.1676334E9,2.192961E9,1.8693243E9,2.1717484E9,4.2793124E9,3.9053066E9,5.7575055E9,4.7237632E8,3.0418207E9,1.7219092E9,3.375956E9,2.1171077E9,4.7440717E8,1.3251306E9,6.8221875E8,4.89813E8,1.3865124E9,1.8040422E9,1.0294518E9,5.1874406E8,1.3832684E9,3.208708E9,4.097884E8,1.251369E8,0E0,0E0,0E0,0E0,0E0,0E0,0E0,0E0,0E0,0E0,0E0,0E0,0E0,0E0,0E0,0E0,0E0,0E0,0E0,0E0,0E0,0E0,0E0,0E0,0E0,0E0,0E0,0E0,0E0,0E0,0E0,0E0,0E0,0E0,0E0,0E0,0E0,0E0,0E0,0E0,0E0,0E0,0E0,0E0,0E0,0E0,0E0,0E0,0E0,0E0,0E0,0E0,0E0,0E0,0E0,0E0,0E0,0E0,0E0,0E0,0E0,0E0,0E0,0E0],"parents":[2147483647,0,0,1,1,2,2,3,3,4,4,5,5,6,6,7,7,8,8,9,9,10,10,11,11,12,12,13,13,14,14,15,15,16,16,17,17,18,18,19,19,20,20,21,21,22,22,23,23,24,24,25,25,26,26,27,27,28,28,29,29,30,30,31,31,32,32,33,33,34,34,35,35,36,36,37,37,38,38,39,39,40,40,41,41,42,42,43,43,44,44,45,45,46,46,47,47,48,48,49,49,50,50,51,51,52,52,53,53,54,54,55,55,56,56,57,57,58,58,59,59,60,60,61,61,62,62],"right_children":[2,4,6,8,10,12,14,16,18,20,22,24,26,28,30,32,34,36,38,40,42,44,46,48,50,52,54,56,58,60,62,64,66,68,70,72,74,76,78,80,82,84,86,88,90,92,94,96,98,100,102,104,106,108,110,112,114,116,118,120,122,124,126,-1,-1,-1,-1,-1,-1,-1,-1,-1,-1,-1,-1,-1,-1,-1,-1,-1,-1,-1,-1,-1,-1,-1,-1,-1,-1,-1,-1,-1,-1,-1,-1,-1,-1,-1,-1,-1,-1,-1,-1,-1,-1,-1,-1,-1,-1,-1,-1,-1,-1,-1,-1,-1,-1,-1,-1,-1,-1,-1,-1,-1,-1,-1,-1],"split_conditions":[3.4026E4,2.7338E4,4.0877E4,2.4393E4,2.9944E4,6E0,4.6473E4,2.2775E4,8E0,6E0,3.1716E4,3.6677E4,3.6892E4,6E0,6E0,7E0,7E0,2.4811E4,5E0,3.0233E4,2.5972E4,2.9948E4,6E0,3.7203E4,3.874E4,2.7171E4,1.6E1,4.299E4,4.3324E4,5.0496E4,5.1891E4,2.1626E4,5E0,2.3956E4,5E0,6E0,2.6058E4,2.3E1,2.6551E4,2.873E4,3.2246E4,6E0,5E0,7E0,6E0,4E0,6E0,3.5268E4,4E0,4E0,4.3675E4,6E0,1.3E1,3.0728E4,3.8593E4,1.73E2,1.6E2,1.9E1,1.3E1,4.853E4,5.3828E4,4.4942E4,2.006E3,-2.8641397E2,-2.5895374E2,-1.4218689E2,-2.3486287E2,-2.3485123E2,-2.1054678E2,-1.02126564E2,-1.7985794E2,-1.7887625E2,-2.2217987E2,-1.6700912E2,-1.3533577E2,-5.4715416E1,-1.251314E2,-1.530372E2,-1.1600222E2,-9.961087E1,-6.7640236E1,-3.1912306E1,8.606945E0,-1.1396598E2,-1.8544296E2,-6.1092606E1,-1.2495108E2,-8.2439415E1,-3.532624E1,-5.2568693E0,-8.6004135E1,2.8457184E1,7.127448E1,8.897674E0,-5.4342876E1,7.0272095E1,1.027849E2,1.1119949E2,1.5310759E2,1.4813489E2,1.9443219E2,2.000356E2,2.5029E2,4.478806E1,-8.596917E1,-3.6697636E1,8.893128E0,-1.4177946E0,4.7322506E1,7.047009E1,1.10067245E2,2.3828897E2,2.7742047E2,2.818475E2,3.3796378E2,1.0402798E2,1.7433543E2,1.4322836E2,2.1172748E2,3.9358603E2,4.4408432E2,5.0150992E2,6.0191376E2,2.6944113E2,3.4566132E2,3.23521E2,4.0905792E2],"split_indices":[6,6,6,6,7,1,6,6,0,1,6,6,6,1,1,0,0,7,1,6,7,6,1,7,6,7,0,6,6,6,6,6,1,7,1,1,6,0,7,6,6,0,0,0,1,1,0,6,1,1,7,0,0,7,6,5,5,0,0,6,6,7,4,0,0,0,0,0,0,0,0,0,0,0,0,0,0,0,0,0,0,0,0,0,0,0,0,0,0,0,0,0,0,0,0,0,0,0,0,0,0,0,0,0,0,0,0,0,0,0,0,0,0,0,0,0,0,0,0,0,0,0,0,0,0,0,0],"split_type":[0,0,0,0,0,0,0,0,0,0,0,0,0,0,0,0,0,0,0,0,0,0,0,0,0,0,0,0,0,0,0,0,0,0,0,0,0,0,0,0,0,0,0,0,0,0,0,0,0,0,0,0,0,0,0,0,0,0,0,0,0,0,0,0,0,0,0,0,0,0,0,0,0,0,0,0,0,0,0,0,0,0,0,0,0,0,0,0,0,0,0,0,0,0,0,0,0,0,0,0,0,0,0,0,0,0,0,0,0,0,0,0,0,0,0,0,0,0,0,0,0,0,0,0,0,0,0],"sum_hessian":[1.44405E5,9.7001E4,4.7404E4,3.4405E4,6.2596E4,3.3887E4,1.3517E4,1.5799E4,1.8606E4,2.354E4,3.9056E4,2.8726E4,5.161E3,8.993E3,4.524E3,7.882E3,7.917E3,1.2539E4,6.067E3,1.6943E4,6.597E3,2.2279E4,1.6777E4,1.4797E4,1.3929E4,2.907E3,2.254E3,7.505E3,1.488E3,3.727E3,7.97E2,7.201E3,6.81E2,6.806E3,1.111E3,3.998E3,8.541E3,2.914E3,3.153E3,1.1203E4,5.74E3,2.468E3,4.129E3,9.966E3,1.2313E4,1.5526E4,1.251E3,1.0491E4,4.306E3,8.175E3,5.754E3,4.34E2,2.473E3,1.108E3,1.146E3,3.794E3,3.711E3,8.02E2,6.86E2,2.314E3,1.413E3,5.94E2,2.03E2,3.119E3,4.082E3,1.66E2,5.15E2,3.194E3,3.612E3,4E2,7.11E2,3.152E3,8.46E2,4.542E3,3.999E3,2.362E3,5.52E2,9.54E2,2.199E3,5.841E3,5.362E3,4.027E3,1.713E3,3.99E2,2.069E3,5.57E2,3.572E3,2.238E3,7.728E3,1.1749E4,5.64E2,1.181E4,3.716E3,1.17E2,1.134E3,5.774E3,4.717E3,3.048E3,1.258E3,6.33E3,1.845E3,4.837E3,9.17E2,2.6E1,4.08E2,9.03E2,1.57E3,4.1E2,6.98E2,5.48E2,5.98E2,1.317E3,2.477E3,6.7E2,3.041E3,4.91E2,3.11E2,1.33E2,5.53E2,1.391E3,9.23E2,9.41E2,4.72E2,5.04E2,9E1,4.6E1,1.57E2],"tree_param":{"num_deleted":"0","num_feature":"8","num_nodes":"127","size_leaf_vector":"1"}},{"base_weights":[7.610076E-2,-2.6827415E3,6.0152593E3,-6.040864E3,-9.176869E2,4.3099556E3,1.1390371E4,-7.7272E3,-4.608599E3,-2.4683447E3,2.2730493E2,3.0791743E3,6.034002E3,9.999525E3,1.5271662E4,-8.596585E3,-6.8606826E3,-5.291606E3,-3.1963513E3,-1.8278097E3,-4.3101416E3,-6.8414954E2,1.2408828E3,3.6646895E3,-1.3447238E2,6.635294E3,2.6299863E3,1.0733385E4,6.4373613E3,1.615296E4,1.1054459E4,-8.758718E3,-6.8718345E3,-7.177596E3,-4.91456E3,-5.7209854E3,-4.6045527E3,-2.201726E3,-4.1145938E3,-2.6169504E3,-4.6438327E2,-5.594997E3,-3.6174783E3,-1.4803029E3,-2.575E2,1.4450984E3,-1.3984684E3,3.0561284E3,4.4692144E3,-1.2142445E3,5.892028E2,5.7856865E3,7.5624634E3,1.6591597E3,3.6539216E3,9.878399E3,1.2279353E4,5.3712935E3,7.7369487E3,1.530477E4,1.9463152E4,9.884693E3,1.26574375E4,-2.778243E2,-2.5118704E2,-1.3794681E2,-2.2783064E2,-2.2780789E2,-2.0423212E2,-9.907039E1,-1.7446979E2,-2.1054514E2,-1.6636711E2,-1.4482607E2,-9.1903175E1,-5.1460934E1,-1.1543812E2,-1.484509E2,-1.1252374E2,-9.435639E1,-6.2953777E1,-2.6045446E1,1.6531456E1,-1.1053383E2,-1.7869029E2,-1.2386625E2,-7.948326E1,-7.861189E1,-3.1063951E1,-4.231849E0,-8.348639E1,3.317671E1,7.5136246E1,1.8935177E1,-4.7918327E1,8.122664E1,1.18177925E2,1.2364689E2,1.693822E2,5.6819916E1,-4.924313E1,-5.684048E0,3.8245617E1,1.3487837E2,1.824648E2,2.0268318E2,2.4091458E2,2.7264585E1,8.091335E1,9.7074554E1,1.3774046E2,2.896397E2,3.866971E2,3.0301636E2,3.751955E2,1.3045094E2,1.9115146E2,2.2299391E2,3.0863162E2,4.3077615E2,4.8648056E2,4.9191656E2,5.9606586E2,2.832422E2,3.745258E2,3.1402188E2,3.9686386E2],"categories":[],"categories_nodes":[],"categories_segments":[],"categories_sizes":[],"default_left":[0,0,0,0,0,0,0,0,0,0,0,0,0,0,0,0,0,0,0,0,0,0,0,0,0,0,0,0,0,0,0,0,0,0,0,0,0,0,0,0,0,0,0,0,0,0,0,0,0,0,0,0,0,0,0,0,0,0,0,0,0,0,0,0,0,0,0,0,0,0,0,0,0,0,0,0,0,0,0,0,0,0,0,0,0,0,0,0,0,0,0,0,0,0,0,0,0,0,0,0,0,0,0,0,0,0,0,0,0,0,0,0,0,0,0,0,0,0,0,0,0,0,0,0,0,0,0],"id":4,"left_children":[1,3,5,7,9,11,13,15,17,19,21,23,25,27,29,31,33,35,37,39,41,43,45,47,49,51,53,55,57,59,61,63,65,67,69,71,73,75,77,79,81,83,85,87,89,91,93,95,97,99,101,103,105,107,109,111,113,115,117,119,121,123,125,-1,-1,-1,-1,-1,-1,-1,-1,-1,-1,-1,-1,-1,-1,-1,-1,-1,-1,-1,-1,-1,-1,-1,-1,-1,-1,-1,-1,-1,-1,-1,-1,-1,-1,-1,-1,-1,-1,-1,-1,-1,-1,-1,-1,-1,-1,-1,-1,-1,-1,-1,-1,-1,-1,-1,-1,-1,-1,-1,-1,-1,-1,-1,-1],"loss_changes":[2.330388E12,5.9192725E11,4.082223E11,8.306439E10,1.1622595E11,7.173426E10,5.775465E10,1.1843731E10,1.7930945E10,3.2794673E10,3.478952E10,3.7128995E10,2.880979E10,2.0582564E10,1.0332078E10,2.1442068E9,4.8481567E9,3.6730307E9,5.532885E9,2.2197494E10,6.364414E9,6.734762E9,9.612333E9,8.1583145E9,2.3777472E9,9.384624E9,2.0973763E9,8.5350154E9,1.8315715E9,6.263603E9,7.9744205E8,1.3176668E9,1.0854195E9,9.9568845E8,1.5962706E9,1.7161585E9,1.6443146E9,2.3273052E9,9.3813146E8,3.5727196E9,3.102353E9,1.7115628E9,2.297979E9,3.505797E9,3.7961006E9,5.944832E9,5.1790592E8,2.9156393E9,2.916778E9,1.6243771E9,9.7300134E8,2.3624745E9,2.1044593E9,8.4490214E8,3.8845133E8,2.7203338E9,1.0259333E9,7.357194E8,3.939369E8,1.3741261E9,2.6256998E8,2.1515264E8,1.167913E8,0E0,0E0,0E0,0E0,0E0,0E0,0E0,0E0,0E0,0E0,0E0,0E0,0E0,0E0,0E0,0E0,0E0,0E0,0E0,0E0,0E0,0E0,0E0,0E0,0E0,0E0,0E0,0E0,0E0,0E0,0E0,0E0,0E0,0E0,0E0,0E0,0E0,0E0,0E0,0E0,0E0,0E0,0E0,0E0,0E0,0E0,0E0,0E0,0E0,0E0,0E0,0E0,0E0,0E0,0E0,0E0,0E0,0E0,0E0,0E0,0E0,0E0,0E0,0E0],"parents":[2147483647,0,0,1,1,2,2,3,3,4,4,5,5,6,6,7,7,8,8,9,9,10,10,11,11,12,12,13,13,14,14,15,15,16,16,17,17,18,18,19,19,20,20,21,21,22,22,23,23,24,24,25,25,26,26,27,27,28,28,29,29,30,30,31,31,32,32,33,33,34,34,35,35,36,36,37,37,38,38,39,39,40,40,41,41,42,42,43,43,44,44,45,45,46,46,47,47,48,48,49,49,50,50,51,51,52,52,53,53,54,54,55,55,56,56,57,57,58,58,59,59,60,60,61,61,62,62],"right_children":[2,4,6,8,10,12,14,16,18,20,22,24,26,28,30,32,34,36,38,40,42,44,46,48,50,52,54,56,58,60,62,64,66,68,70,72,74,76,78,80,82,84,86,88,90,92,94,96,98,100,102,104,106,108,110,112,114,116,118,120,122,124,126,-1,-1,-1,-1,-1,-1,-1,-1,-1,-1,-1,-1,-1,-1,-1,-1,-1,-1,-1,-1,-1,-1,-1,-1,-1,-1,-1,-1,-1,-1,-1,-1,-1,-1,-1,-1,-1,-1,-1,-1,-1,-1,-1,-1,-1,-1,-1,-1,-1,-1,-1,-1,-1,-1,-1,-1,-1,-1,-1,-1,-1,-1,-1,-1],"split_conditions":[3.4395E4,2.7338E4,4.2069E4,2.4393E4,3.0507E4,3.7701E4,4.853E4,2.2775E4,8E0,6E0,3.1765E4,6E0,6E0,6E0,6E0,7E0,7E0,2.7091E4,5E0,3.0293E4,2.5972E4,2.9596E4,6E0,3.6082E4,1.3E1,3.9529E4,1.7E1,4.5396E4,4.4914E4,5.3828E4,5.1891E4,2.1626E4,5E0,2.3956E4,5E0,2.2364E4,7E0,2.2E1,2.6551E4,2.873E4,3.2474E4,6E0,3.2141E4,8E0,6E0,4E0,6E0,3.7203E4,4E0,6E0,3.5797E4,3.3603E4,1.64E2,3.9681E4,4.0465E4,5.0598E4,1.6E2,1.8E1,4.6531E4,5.0496E4,1.83E2,4.4942E4,2.006E3,-2.778243E2,-2.5118704E2,-1.3794681E2,-2.2783064E2,-2.2780789E2,-2.0423212E2,-9.907039E1,-1.7446979E2,-2.1054514E2,-1.6636711E2,-1.4482607E2,-9.1903175E1,-5.1460934E1,-1.1543812E2,-1.484509E2,-1.1252374E2,-9.435639E1,-6.2953777E1,-2.6045446E1,1.6531456E1,-1.1053383E2,-1.7869029E2,-1.2386625E2,-7.948326E1,-7.861189E1,-3.1063951E1,-4.231849E0,-8.348639E1,3.317671E1,7.5136246E1,1.8935177E1,-4.7918327E1,8.122664E1,1.18177925E2,1.2364689E2,1.693822E2,5.6819916E1,-4.924313E1,-5.684048E0,3.8245617E1,1.3487837E2,1.824648E2,2.0268318E2,2.4091458E2,2.7264585E1,8.091335E1,9.7074554E1,1.3774046E2,2.896397E2,3.866971E2,3.0301636E2,3.751955E2,1.3045094E2,1.9115146E2,2.2299391E2,3.0863162E2,4.3077615E2,4.8648056E2,4.9191656E2,5.9606586E2,2.832422E2,3.745258E2,3.1402188E2,3.9686386E2],"split_indices":[6,6,6,6,7,6,6,6,0,1,6,1,1,1,1,0,0,7,1,6,7,6,1,6,0,6,0,6,6,6,6,6,1,7,1,7,0,0,7,6,6,0,6,0,1,1,0,7,1,0,6,7,5,6,6,7,5,0,7,6,5,7,4,0,0,0,0,0,0,0,0,0,0,0,0,0,0,0,0,0,0,0,0,0,0,0,0,0,0,0,0,0,0,0,0,0,0,0,0,0,0,0,0,0,0,0,0,0,0,0,0,0,0,0,0,0,0,0,0,0,0,0,0,0,0,0,0],"split_type":[0,0,0,0,0,0,0,0,0,0,0,0,0,0,0,0,0,0,0,0,0,0,0,0,0,0,0,0,0,0,0,0,0,0,0,0,0,0,0,0,0,0,0,0,0,0,0,0,0,0,0,0,0,0,0,0,0,0,0,0,0,0,0,0,0,0,0,0,0,0,0,0,0,0,0,0,0,0,0,0,0,0,0,0,0,0,0,0,0,0,0,0,0,0,0,0,0,0,0,0,0,0,0,0,0,0,0,0,0,0,0,0,0,0,0,0,0,0,0,0,0,0,0,0,0,0,0],"sum_hessian":[1.44405E5,9.9865E4,4.454E4,3.4405E4,6.546E4,3.3814E4,1.0726E4,1.5799E4,1.8606E4,2.7804E4,3.7656E4,1.9731E4,1.4083E4,7.899E3,2.827E3,7.882E3,7.917E3,1.2539E4,6.067E3,2.0631E4,7.173E3,1.9827E4,1.7829E4,1.669E4,3.041E3,1.1968E4,2.115E3,6.548E3,1.351E3,2.336E3,4.91E2,7.201E3,6.81E2,6.806E3,1.111E3,7.712E3,4.827E3,2.914E3,3.153E3,1.3067E4,7.564E3,2.51E3,4.663E3,6.917E3,1.291E4,1.6549E4,1.28E3,9.505E3,7.185E3,1.22E3,1.821E3,6.249E3,5.719E3,1.087E3,1.028E3,4.221E3,2.327E3,7.45E2,6.06E2,1.864E3,4.72E2,2.88E2,2.03E2,3.119E3,4.082E3,1.66E2,5.15E2,3.194E3,3.612E3,4E2,7.11E2,9.14E2,6.798E3,4.215E3,6.12E2,2.251E3,6.63E2,9.54E2,2.199E3,6.47E3,6.597E3,5.412E3,2.152E3,4.01E2,2.109E3,3.049E3,1.614E3,1.94E3,4.977E3,1.2342E4,5.68E2,1.2537E4,4.012E3,1.14E2,1.166E3,6.818E3,2.687E3,5.55E3,1.635E3,1.47E2,1.073E3,8.53E2,9.68E2,1.171E3,5.078E3,2.106E3,3.613E3,6.32E2,4.55E2,7.14E2,3.14E2,3.933E3,2.88E2,2.24E2,2.103E3,3.71E2,3.74E2,5.45E2,6.1E1,9.23E2,9.41E2,6E1,4.12E2,2.5E2,3.8E1,4.6E1,1.57E2],"tree_param":{"num_deleted":"0","num_feature":"8","num_nodes":"127","size_leaf_vector":"1"}},{"base_weights":[1.0016656E-1,-2.7960771E3,5.4332334E3,-6.2576865E3,-1.2582E3,3.5951401E3,1.0266698E4,-7.906267E3,-5.138174E3,-3.0449421E3,-2.8199344E2,4.1670522E3,4.1578055E2,8.583397E3,1.3610199E4,-8.664192E3,-7.3364326E3,-5.7571353E3,-3.689399E3,-2.443409E3,-4.57431E3,-1.3357925E3,5.62801E2,2.9212407E3,5.6156685E3,-8.5002124E2,1.6832979E3,9.27385E3,5.0970835E3,1.4436661E4,9.73218E3,-8.875731E3,-7.6148726E3,-7.589398E3,-5.315047E3,-6.3325356E3,-5.142584E3,-2.591179E3,-4.6416235E3,-3.2326624E3,-1.1360704E3,-6.068084E3,-4.0359521E3,-2.542657E3,-1.01258417E3,7.575637E2,-1.9214E3,2.363203E3,3.5526233E3,4.8762666E3,6.409629E3,-2.4696187E3,-4.6668588E2,8.023705E2,2.7262656E3,8.391574E3,1.0422892E4,4.118745E3,6.233195E3,1.2989712E4,1.6795395E4,8.841874E3,1.2281199E4,-2.8076175E2,-2.5940005E2,-1.889517E2,-2.4325443E2,-2.433924E2,-2.2008356E2,-1.1274517E2,-1.8526344E2,-1.9663179E2,-1.7028485E2,-1.7866264E2,-1.4939494E2,-1.24154335E2,-6.510779E1,-1.3129047E2,-2.2763708E2,-1.1237962E2,-8.229914E1,-5.317439E1,-1.3316437E1,-1.2961942E2,-1.9574808E2,-1.3873128E2,-1.0030524E2,-1.0418201E2,-6.0953537E1,-2.7892141E1,-1.1671217E2,1.2154354E1,5.5666096E1,-3.100354E0,-6.439987E1,6.237194E1,9.792307E1,6.8823685E1,1.13866325E2,1.3624084E2,1.8026395E2,1.6122389E2,2.02314E2,2.7513744E1,-8.059918E1,-4.0823486E1,9.913552E-1,1.3300685E2,1.8774107E1,6.2202576E1,1.0561418E2,2.4397806E2,2.9685336E2,2.695434E2,3.216643E2,9.747788E1,1.6429953E2,1.3394286E2,1.9949062E2,3.032968E2,3.9631033E2,4.7190164E2,5.664467E2,2.5380257E2,3.2590268E2,3.0480164E2,3.8503333E2],"categories":[],"categories_nodes":[],"categories_segments":[],"categories_sizes":[],"default_left":[0,0,0,0,0,0,0,0,0,0,0,0,0,0,0,0,0,0,0,0,0,0,0,0,0,0,0,0,0,0,0,0,0,0,0,0,0,0,0,0,0,0,0,0,0,0,0,0,0,0,0,0,0,0,0,0,0,0,0,0,0,0,0,0,0,0,0,0,0,0,0,0,0,0,0,0,0,0,0,0,0,0,0,0,0,0,0,0,0,0,0,0,0,0,0,0,0,0,0,0,0,0,0,0,0,0,0,0,0,0,0,0,0,0,0,0,0,0,0,0,0,0,0,0,0,0,0],"id":5,"left_children":[1,3,5,7,9,11,13,15,17,19,21,23,25,27,29,31,33,35,37,39,41,43,45,47,49,51,53,55,57,59,61,63,65,67,69,71,73,75,77,79,81,83,85,87,89,91,93,95,97,99,101,103,105,107,109,111,113,115,117,119,121,123,125,-1,-1,-1,-1,-1,-1,-1,-1,-1,-1,-1,-1,-1,-1,-1,-1,-1,-1,-1,-1,-1,-1,-1,-1,-1,-1,-1,-1,-1,-1,-1,-1,-1,-1,-1,-1,-1,-1,-1,-1,-1,-1,-1,-1,-1,-1,-1,-1,-1,-1,-1,-1,-1,-1,-1,-1,-1,-1,-1,-1,-1,-1,-1,-1],"loss_changes":[2.1938315E12,5.075376E11,4.3589186E11,5.408542E10,1.151427E11,6.4639336E10,7.596396E10,5.058265E9,1.5643836E10,2.1446115E10,3.800614E10,5.4359327E10,8.699022E9,2.16025E10,1.436228E10,1.06092954E9,3.4244854E9,4.2949345E9,5.4593454E9,1.7271079E10,5.269455E9,7.4071675E9,1.1466285E10,5.6997806E9,8.1464197E9,1.6832105E9,2.4867845E9,7.52196E9,1.629352E9,1.2505383E10,1.7023959E9,3.8653133E8,5.0778112E8,7.3898394E8,9.9082035E8,8.825569E8,7.5390976E8,1.5749499E9,2.1559828E9,2.6120028E9,2.7762232E9,1.3624812E9,1.9574129E9,1.8992476E9,3.5690547E9,8.5020006E9,7.054136E8,2.195411E9,2.3144366E9,2.7100447E9,2.2870426E9,3.83926E8,9.807887E8,9.397135E8,6.356347E8,1.5747318E9,1.3048545E9,9.302866E8,4.763136E8,1.3373932E9,2.845573E9,3.67317E8,1.090007E8,0E0,0E0,0E0,0E0,0E0,0E0,0E0,0E0,0E0,0E0,0E0,0E0,0E0,0E0,0E0,0E0,0E0,0E0,0E0,0E0,0E0,0E0,0E0,0E0,0E0,0E0,0E0,0E0,0E0,0E0,0E0,0E0,0E0,0E0,0E0,0E0,0E0,0E0,0E0,0E0,0E0,0E0,0E0,0E0,0E0,0E0,0E0,0E0,0E0,0E0,0E0,0E0,0E0,0E0,0E0,0E0,0E0,0E0,0E0,0E0,0E0,0E0,0E0,0E0],"parents":[2147483647,0,0,1,1,2,2,3,3,4,4,5,5,6,6,7,7,8,8,9,9,10,10,11,11,12,12,13,13,14,14,15,15,16,16,17,17,18,18,19,19,20,20,21,21,22,22,23,23,24,24,25,25,26,26,27,27,28,28,29,29,30,30,31,31,32,32,33,33,34,34,35,35,36,36,37,37,38,38,39,39,40,40,41,41,42,42,43,43,44,44,45,45,46,46,47,47,48,48,49,49,50,50,51,51,52,52,53,53,54,54,55,55,56,56,57,57,58,58,59,59,60,60,61,61,62,62],"right_children":[2,4,6,8,10,12,14,16,18,20,22,24,26,28,30,32,34,36,38,40,42,44,46,48,50,52,54,56,58,60,62,64,66,68,70,72,74,76,78,80,82,84,86,88,90,92,94,96,98,100,102,104,106,108,110,112,114,116,118,120,122,124,126,-1,-1,-1,-1,-1,-1,-1,-1,-1,-1,-1,-1,-1,-1,-1,-1,-1,-1,-1,-1,-1,-1,-1,-1,-1,-1,-1,-1,-1,-1,-1,-1,-1,-1,-1,-1,-1,-1,-1,-1,-1,-1,-1,-1,-1,-1,-1,-1,-1,-1,-1,-1,-1,-1,-1,-1,-1,-1,-1,-1,-1,-1,-1,-1],"split_conditions":[3.3829E4,2.6629E4,4.0877E4,2.3621E4,2.9409E4,6E0,4.6473E4,2.2063E4,7E0,6E0,3.0786E4,3.6677E4,3.6376E4,6E0,6E0,6E0,7E0,2.5124E4,5E0,2.9475E4,2.491E4,7E0,6E0,3.5187E4,3.8463E4,2.7556E4,1.7E1,4.3324E4,4.3324E4,5.0496E4,5.1891E4,2.1467E4,5E0,2.264E4,5E0,2.6944E4,2.3623E4,4E0,6E0,2.7921E4,3.0946E4,6E0,3.1106E4,2.8266E4,6E0,4E0,5E0,4E0,3.171E4,4E0,3.4924E4,6E0,1.3E1,6E0,3.8593E4,4.6531E4,1.6E2,1.9E1,1.3E1,1.6E2,5.3828E4,4.4942E4,2.006E3,-2.8076175E2,-2.5940005E2,-1.889517E2,-2.4325443E2,-2.433924E2,-2.2008356E2,-1.1274517E2,-1.8526344E2,-1.9663179E2,-1.7028485E2,-1.7866264E2,-1.4939494E2,-1.24154335E2,-6.510779E1,-1.3129047E2,-2.2763708E2,-1.1237962E2,-8.229914E1,-5.317439E1,-1.3316437E1,-1.2961942E2,-1.9574808E2,-1.3873128E2,-1.0030524E2,-1.0418201E2,-6.0953537E1,-2.7892141E1,-1.1671217E2,1.2154354E1,5.5666096E1,-3.100354E0,-6.439987E1,6.237194E1,9.792307E1,6.8823685E1,1.13866325E2,1.3624084E2,1.8026395E2,1.6122389E2,2.02314E2,2.7513744E1,-8.059918E1,-4.0823486E1,9.913552E-1,1.3300685E2,1.8774107E1,6.2202576E1,1.0561418E2,2.4397806E2,2.9685336E2,2.695434E2,3.216643E2,9.747788E1,1.6429953E2,1.3394286E2,1.9949062E2,3.032968E2,3.9631033E2,4.7190164E2,5.664467E2,2.5380257E2,3.2590268E2,3.0480164E2,3.8503333E2],"split_indices":[6,6,6,6,7,1,6,6,0,1,6,6,6,1,1,0,0,6,1,6,7,0,1,6,6,7,0,6,6,6,6,7,1,7,1,7,7,1,1,6,6,0,6,6,1,1,0,1,7,1,7,0,0,0,6,7,5,0,0,5,6,7,4,0,0,0,0,0,0,0,0,0,0,0,0,0,0,0,0,0,0,0,0,0,0,0,0,0,0,0,0,0,0,0,0,0,0,0,0,0,0,0,0,0,0,0,0,0,0,0,0,0,0,0,0,0,0,0,0,0,0,0,0,0,0,0,0],"split_type":[0,0,0,0,0,0,0,0,0,0,0,0,0,0,0,0,0,0,0,0,0,0,0,0,0,0,0,0,0,0,0,0,0,0,0,0,0,0,0,0,0,0,0,0,0,0,0,0,0,0,0,0,0,0,0,0,0,0,0,0,0,0,0,0,0,0,0,0,0,0,0,0,0,0,0,0,0,0,0,0,0,0,0,0,0,0,0,0,0,0,0,0,0,0,0,0,0,0,0,0,0,0,0,0,0,0,0,0,0,0,0,0,0,0,0,0,0,0,0,0,0,0,0,0,0,0,0],"sum_hessian":[1.44405E5,9.5339E4,4.9066E4,2.9326E4,6.6013E4,3.5549E4,1.3517E4,1.1858E4,1.7468E4,2.3323E4,4.269E4,3.0129E4,5.42E3,8.993E3,4.524E3,5.083E3,6.775E3,1.2237E4,5.231E3,1.6741E4,6.582E3,1.8995E4,2.3695E4,1.62E4,1.3929E4,2.712E3,2.708E3,7.505E3,1.488E3,3.727E3,7.97E2,4.224E3,8.59E2,6.019E3,7.56E2,6.315E3,5.922E3,2.431E3,2.8E3,1.0438E4,6.303E3,1.741E3,4.841E3,4.011E3,1.4984E4,2.1973E4,1.722E3,8.602E3,7.598E3,7.216E3,6.713E3,5.18E2,2.194E3,1.469E3,1.239E3,4.25E3,3.255E3,8.02E2,6.86E2,2.314E3,1.413E3,5.94E2,2.03E2,1.346E3,2.878E3,2.38E2,6.21E2,1.952E3,4.067E3,2.71E2,4.85E2,4.713E3,1.602E3,9.82E2,4.94E3,5.18E2,1.913E3,2.571E3,2.29E2,5.091E3,5.347E3,3.283E3,3.02E3,3.63E2,1.378E3,2.614E3,2.227E3,1.42E3,2.591E3,1.4566E4,4.18E2,1.6635E4,5.338E3,1.9E2,1.532E3,6.542E3,2.06E3,1.231E3,6.367E3,5.573E3,1.643E3,1.642E3,5.071E3,3.1E1,4.87E2,7.86E2,1.408E3,6.7E1,1.402E3,6.82E2,5.57E2,3.631E3,6.19E2,5.66E2,2.689E3,4.91E2,3.11E2,1.33E2,5.53E2,1.68E2,2.146E3,9.41E2,4.72E2,5.04E2,9E1,4.6E1,1.57E2],"tree_param":{"num_deleted":"0","num_feature":"8","num_nodes":"127","size_leaf_vector":"1"}},{"base_weights":[1.1014361E-1,-2.7369912E3,5.223065E3,-6.116896E3,-1.2632389E3,3.45135E3,9.959048E3,-7.669225E3,-5.028013E3,-2.9830906E3,-3.04371E2,2.3268274E3,4.993035E3,8.628626E3,1.3953275E4,-8.404458E3,-7.1164517E3,-5.6129062E3,-3.6210933E3,-2.4102634E3,-4.46326E3,-1.4068889E3,4.483591E2,2.8800935E3,-6.642024E2,5.5367554E3,1.8594266E3,9.305108E3,5.246715E3,1.4765332E4,1.0125148E4,-8.609587E3,-7.386929E3,-7.361793E3,-5.155989E3,-6.142618E3,-5.017547E3,-2.5503293E3,-4.536168E3,-3.2358936E3,-1.2252373E3,-5.896238E3,-3.9389585E3,-2.579968E3,-1.07679E3,6.27567E2,-1.9291162E3,2.2997314E3,3.5687007E3,-2.3031182E3,-2.9708698E2,5.0680127E3,6.64175E3,8.9822894E2,2.7871587E3,8.237202E3,1.0634605E4,4.2394395E3,6.701201E3,1.3577029E4,1.7076996E4,9.16482E3,1.1916144E4,-2.7234518E2,-2.5162074E2,-1.8330688E2,-2.3596854E2,-2.3730087E2,-2.1401942E2,-1.0937522E2,-1.7971696E2,-1.907341E2,-1.6517949E2,-1.7371526E2,-1.4584665E2,-1.23688324E2,-6.4402084E1,-1.2856589E2,-2.2076727E2,-1.11091484E2,-8.1584785E1,-5.3995125E1,-1.3500379E1,-1.2550084E2,-1.9082108E2,-1.3479268E2,-9.8073395E1,-1.0164491E2,-6.165994E1,-4.805696E1,-1.835013E1,8.313247E0,5.092932E1,-6.147942E0,-6.4779564E1,5.5033527E1,8.57108E1,9.772121E1,1.3902734E2,2.7051874E1,-7.512938E1,-3.2335014E1,7.626553E0,1.365174E2,1.7200262E2,1.6371541E2,2.0824223E2,-2.556736E0,4.425593E1,6.470792E1,1.0080381E2,2.180349E2,2.5901016E2,3.021261E2,3.475054E2,9.841927E1,1.5819429E2,1.081015E2,2.064292E2,3.3157092E2,4.1551132E2,4.7372104E2,5.494893E2,2.6102808E2,3.4736697E2,2.9585217E2,3.7355536E2],"categories":[],"categories_nodes":[],"categories_segments":[],"categories_sizes":[],"default_left":[0,0,0,0,0,0,0,0,0,0,0,0,0,0,0,0,0,0,0,0,0,0,0,0,0,0,0,0,0,0,0,0,0,0,0,0,0,0,0,0,0,0,0,0,0,0,0,0,0,0,0,0,0,0,0,0,0,0,0,0,0,0,0,0,0,0,0,0,0,0,0,0,0,0,0,0,0,0,0,0,0,0,0,0,0,0,0,0,0,0,0,0,0,0,0,0,0,0,0,0,0,0,0,0,0,0,0,0,0,0,0,0,0,0,0,0,0,0,0,0,0,0,0,0,0,0,0],"id":6,"left_children":[1,3,5,7,9,11,13,15,17,19,21,23,25,27,29,31,33,35,37,39,41,43,45,47,49,51,53,55,57,59,61,63,65,67,69,71,73,75,77,79,81,83,85,87,89,91,93,95,97,99,101,103,105,107,109,111,113,115,117,119,121,123,125,-1,-1,-1,-1,-1,-1,-1,-1,-1,-1,-1,-1,-1,-1,-1,-1,-1,-1,-1,-1,-1,-1,-1,-1,-1,-1,-1,-1,-1,-1,-1,-1,-1,-1,-1,-1,-1,-1,-1,-1,-1,-1,-1,-1,-1,-1,-1,-1,-1,-1,-1,-1,-1,-1,-1,-1,-1,-1,-1,-1,-1,-1,-1,-1],"loss_changes":[2.0644073E12,4.7196543E11,4.1661143E11,4.8591405E10,1.0881236E11,6.2639374E10,7.171447E10,4.7598797E9,1.3896516E10,2.001535E10,3.5159278E10,3.4584666E10,2.5957433E10,2.315636E10,1.0345316E10,9.975562E8,3.2212255E9,3.7359452E9,4.8572006E9,1.6659055E10,4.9271767E9,6.653356E9,1.0728185E10,7.039877E9,1.9625691E9,6.693028E9,2.0083564E9,1.1910906E10,2.4519516E9,7.412908E9,9.1243725E8,3.6379034E8,4.7751987E8,6.954025E8,9.322312E8,8.302428E8,6.505759E8,1.4458747E9,1.8631107E9,2.4112497E9,3.1150725E9,1.3759816E9,1.7770086E9,1.5932457E9,3.2757166E9,8.779823E9,7.0010624E8,2.4770273E9,2.6599916E9,3.8720256E8,1.1482307E9,3.1149916E9,1.3340672E9,6.293967E8,4.0693453E8,1.7401119E9,1.8952356E9,9.767854E8,3.6002406E8,1.1187978E9,1.2108595E9,3.3711514E8,1.0171597E8,0E0,0E0,0E0,0E0,0E0,0E0,0E0,0E0,0E0,0E0,0E0,0E0,0E0,0E0,0E0,0E0,0E0,0E0,0E0,0E0,0E0,0E0,0E0,0E0,0E0,0E0,0E0,0E0,0E0,0E0,0E0,0E0,0E0,0E0,0E0,0E0,0E0,0E0,0E0,0E0,0E0,0E0,0E0,0E0,0E0,0E0,0E0,0E0,0E0,0E0,0E0,0E0,0E0,0E0,0E0,0E0,0E0,0E0,0E0,0E0,0E0,0E0,0E0,0E0],"parents":[2147483647,0,0,1,1,2,2,3,3,4,4,5,5,6,6,7,7,8,8,9,9,10,10,11,11,12,12,13,13,14,14,15,15,16,16,17,17,18,18,19,19,20,20,21,21,22,22,23,23,24,24,25,25,26,26,27,27,28,28,29,29,30,30,31,31,32,32,33,33,34,34,35,35,36,36,37,37,38,38,39,39,40,40,41,41,42,42,43,43,44,44,45,45,46,46,47,47,48,48,49,49,50,50,51,51,52,52,53,53,54,54,55,55,56,56,57,57,58,58,59,59,60,60,61,61,62,62],"right_children":[2,4,6,8,10,12,14,16,18,20,22,24,26,28,30,32,34,36,38,40,42,44,46,48,50,52,54,56,58,60,62,64,66,68,70,72,74,76,78,80,82,84,86,88,90,92,94,96,98,100,102,104,106,108,110,112,114,116,118,120,122,124,126,-1,-1,-1,-1,-1,-1,-1,-1,-1,-1,-1,-1,-1,-1,-1,-1,-1,-1,-1,-1,-1,-1,-1,-1,-1,-1,-1,-1,-1,-1,-1,-1,-1,-1,-1,-1,-1,-1,-1,-1,-1,-1,-1,-1,-1,-1,-1,-1,-1,-1,-1,-1,-1,-1,-1,-1,-1,-1,-1,-1,-1,-1,-1,-1],"split_conditions":[3.375E4,2.6551E4,4.0877E4,2.3621E4,2.9409E4,3.6892E4,4.7793E4,2.2063E4,7E0,6E0,3.0513E4,6E0,6E0,6E0,6E0,6E0,7E0,2.5124E4,5E0,2.9232E4,2.491E4,7E0,6E0,3.5268E4,2.7556E4,3.9336E4,1.6E1,4.3671E4,4.4026E4,5.1891E4,5.1891E4,2.1467E4,5E0,2.2506E4,5E0,2.6944E4,2.3623E4,4E0,6E0,7E0,3.0946E4,6E0,3.1106E4,2.8266E4,4E0,4E0,5E0,3.4844E4,4E0,6E0,1.4E1,3.7802E4,1E0,3.0728E4,3.8593E4,1.62E2,4.5944E4,1.8E1,2.003E3,3.5874E4,5.3828E4,4.4942E4,2.006E3,-2.7234518E2,-2.5162074E2,-1.8330688E2,-2.3596854E2,-2.3730087E2,-2.1401942E2,-1.0937522E2,-1.7971696E2,-1.907341E2,-1.6517949E2,-1.7371526E2,-1.4584665E2,-1.23688324E2,-6.4402084E1,-1.2856589E2,-2.2076727E2,-1.11091484E2,-8.1584785E1,-5.3995125E1,-1.3500379E1,-1.2550084E2,-1.9082108E2,-1.3479268E2,-9.8073395E1,-1.0164491E2,-6.165994E1,-4.805696E1,-1.835013E1,8.313247E0,5.092932E1,-6.147942E0,-6.4779564E1,5.5033527E1,8.57108E1,9.772121E1,1.3902734E2,2.7051874E1,-7.512938E1,-3.2335014E1,7.626553E0,1.365174E2,1.7200262E2,1.6371541E2,2.0824223E2,-2.556736E0,4.425593E1,6.470792E1,1.0080381E2,2.180349E2,2.5901016E2,3.021261E2,3.475054E2,9.841927E1,1.5819429E2,1.081015E2,2.064292E2,3.3157092E2,4.1551132E2,4.7372104E2,5.494893E2,2.6102808E2,3.4736697E2,2.9585217E2,3.7355536E2],"split_indices":[6,6,6,6,7,6,6,6,0,1,6,1,1,1,1,0,0,6,1,6,7,0,1,6,7,6,0,6,6,6,6,7,1,7,1,7,7,1,1,0,6,0,6,6,1,1,0,7,1,0,0,7,1,7,6,5,6,0,4,7,6,7,4,0,0,0,0,0,0,0,0,0,0,0,0,0,0,0,0,0,0,0,0,0,0,0,0,0,0,0,0,0,0,0,0,0,0,0,0,0,0,0,0,0,0,0,0,0,0,0,0,0,0,0,0,0,0,0,0,0,0,0,0,0,0,0,0],"split_type":[0,0,0,0,0,0,0,0,0,0,0,0,0,0,0,0,0,0,0,0,0,0,0,0,0,0,0,0,0,0,0,0,0,0,0,0,0,0,0,0,0,0,0,0,0,0,0,0,0,0,0,0,0,0,0,0,0,0,0,0,0,0,0,0,0,0,0,0,0,0,0,0,0,0,0,0,0,0,0,0,0,0,0,0,0,0,0,0,0,0,0,0,0,0,0,0,0,0,0,0,0,0,0,0,0,0,0,0,0,0,0,0,0,0,0,0,0,0,0,0,0,0,0,0,0,0,0],"sum_hessian":[1.44405E5,9.4751E4,4.9654E4,2.8769E4,6.5982E4,3.6137E4,1.3517E4,1.1858E4,1.6911E4,2.3618E4,4.2364E4,2.0897E4,1.524E4,1.0142E4,3.375E3,5.083E3,6.775E3,1.1943E4,4.968E3,1.703E4,6.588E3,1.7188E4,2.5176E4,1.7635E4,3.262E3,1.2986E4,2.254E3,8.45E3,1.692E3,2.782E3,5.93E2,4.224E3,8.59E2,6.019E3,7.56E2,6.315E3,5.628E3,2.291E3,2.677E3,1.0036E4,6.994E3,1.762E3,4.826E3,3.773E3,1.3415E4,2.3412E4,1.764E3,9.572E3,8.063E3,5.96E2,2.666E3,9.122E3,3.864E3,1.108E3,1.146E3,4.69E3,3.76E3,1.002E3,6.9E2,1.842E3,9.4E2,3.9E2,2.03E2,1.346E3,2.878E3,2.38E2,6.21E2,1.757E3,4.262E3,2.71E2,4.85E2,4.713E3,1.602E3,9.39E2,4.689E3,4.66E2,1.825E3,2.461E3,2.16E2,5.266E3,4.77E3,4.016E3,2.978E3,3.78E2,1.384E3,2.638E3,2.188E3,1.483E3,2.29E3,6.3E3,7.115E3,1.7637E4,5.775E3,2.08E2,1.556E3,5.219E3,4.353E3,6.243E3,1.82E3,3.5E1,5.61E2,1.103E3,1.563E3,5.136E3,3.986E3,7.84E2,3.08E3,4.1E2,6.98E2,5.48E2,5.98E2,1.367E3,3.323E3,2.366E3,1.394E3,5.22E2,4.8E2,3.9E1,6.51E2,1.84E2,1.658E3,4.68E2,4.72E2,3.31E2,5.9E1,4.6E1,1.57E2],"tree_param":{"num_deleted":"0","num_feature":"8","num_nodes":"127","size_leaf_vector":"1"}},{"base_weights":[1.2070333E-1,-2.8659387E3,4.6976406E3,-6.0720996E3,-1.4796375E3,2.9750122E3,9.404701E3,-7.5023745E3,-5.051616E3,-3.0222852E3,-5.213554E2,1.7966549E3,4.4115664E3,7.88385E3,1.2809329E4,-8.222564E3,-7.017182E3,-5.5705137E3,-3.6595432E3,-2.4985193E3,-4.4864453E3,-1.4883971E3,1.7326518E2,2.3379573E3,-1.1110742E3,4.9504824E3,1.3877213E3,8.50792E3,4.6644272E3,1.3585739E4,9.166136E3,-8.412888E3,-7.28055E3,-7.2446543E3,-5.104883E3,-6.112862E3,-5.0658545E3,-2.566318E3,-4.5401265E3,-3.2366926E3,-1.3275526E3,-5.791958E3,-3.9697043E3,-2.6659285E3,-1.1319589E3,3.322552E2,-2.1447156E3,1.8560729E3,3.0162065E3,-2.555186E3,-6.8273236E2,4.285294E3,5.804617E3,4.153715E2,2.2420872E3,7.339399E3,9.458303E3,3.8004526E3,5.867454E3,1.2217757E4,1.5815792E4,8.329311E3,1.1561941E4,-2.4737706E2,-2.7135074E2,-1.8123091E2,-2.3108087E2,-2.3595609E2,-2.1115056E2,-1.0826988E2,-1.779731E2,-1.9706415E2,-1.7538869E2,-1.7500706E2,-1.4716434E2,-1.2662404E2,-6.644374E1,-1.2962619E2,-2.1624811E2,-1.108814E2,-8.1334236E1,-5.4399517E1,-1.9710884E1,-1.2416661E2,-1.8882434E2,-8.0381096E1,-1.27181625E2,-1.0226481E2,-6.2987167E1,-5.0537537E1,-2.0875057E1,-5.374076E-1,4.1341602E1,-6.703116E1,1.0463254E2,4.117473E1,7.0796265E1,7.922012E1,1.18610275E2,9.524406E0,-8.2119896E1,-3.4925385E1,1.6410937E0,1.1274834E2,1.4877007E2,1.6127286E2,1.980062E2,1.27040535E2,5.822287E0,4.446316E1,8.3969055E1,1.8438373E2,2.2956891E2,2.7763687E2,3.5521298E2,9.120677E1,1.490082E2,1.3391002E2,1.9071106E2,2.834582E2,3.7290115E2,4.4456284E2,5.330395E2,2.4059622E2,3.1828522E2,2.8716547E2,3.6241965E2],"categories":[],"categories_nodes":[],"categories_segments":[],"categories_sizes":[],"default_left":[0,0,0,0,0,0,0,0,0,0,0,0,0,0,0,0,0,0,0,0,0,0,0,0,0,0,0,0,0,0,0,0,0,0,0,0,0,0,0,0,0,0,0,0,0,0,0,0,0,0,0,0,0,0,0,0,0,0,0,0,0,0,0,0,0,0,0,0,0,0,0,0,0,0,0,0,0,0,0,0,0,0,0,0,0,0,0,0,0,0,0,0,0,0,0,0,0,0,0,0,0,0,0,0,0,0,0,0,0,0,0,0,0,0,0,0,0,0,0,0,0,0,0,0,0,0,0],"id":7,"left_children":[1,3,5,7,9,11,13,15,17,19,21,23,25,27,29,31,33,35,37,39,41,43,45,47,49,51,53,55,57,59,61,63,65,67,69,71,73,75,77,79,81,83,85,87,89,91,93,95,97,99,101,103,105,107,109,111,113,115,117,119,121,123,125,-1,-1,-1,-1,-1,-1,-1,-1,-1,-1,-1,-1,-1,-1,-1,-1,-1,-1,-1,-1,-1,-1,-1,-1,-1,-1,-1,-1,-1,-1,-1,-1,-1,-1,-1,-1,-1,-1,-1,-1,-1,-1,-1,-1,-1,-1,-1,-1,-1,-1,-1,-1,-1,-1,-1,-1,-1,-1,-1,-1,-1,-1,-1,-1],"loss_changes":[1.944205E12,3.9862324E11,4.4367007E11,3.9477117E10,9.256165E10,6.78063E10,7.580759E10,3.8806487E9,1.139481E10,1.8387698E10,2.5945047E10,3.4645467E10,2.9410623E10,2.0324942E10,1.2674925E10,7.511081E8,2.8953477E9,3.119317E9,4.1220792E9,1.5271821E10,4.240556E9,6.7737354E9,8.285028E9,6.0592046E9,2.1354266E9,8.679948E9,2.2686577E9,9.358017E9,1.6906076E9,1.1179721E10,1.5035843E9,3.2261734E8,3.558564E8,7.155876E8,8.698962E8,6.352896E8,7.061832E8,1.1061504E9,1.3593928E9,2.6066698E9,2.2250813E9,1.4599209E9,1.5653437E9,1.5710597E9,2.9864284E9,7.703898E9,7.364905E8,2.640388E9,2.7024835E9,4.1422694E8,9.465902E8,3.040854E9,2.2521938E9,1.0801836E9,6.112128E8,1.376256E9,2.1608202E9,8.379955E8,4.4377702E8,1.2434145E9,2.4888934E9,3.347292E8,9.491251E7,0E0,0E0,0E0,0E0,0E0,0E0,0E0,0E0,0E0,0E0,0E0,0E0,0E0,0E0,0E0,0E0,0E0,0E0,0E0,0E0,0E0,0E0,0E0,0E0,0E0,0E0,0E0,0E0,0E0,0E0,0E0,0E0,0E0,0E0,0E0,0E0,0E0,0E0,0E0,0E0,0E0,0E0,0E0,0E0,0E0,0E0,0E0,0E0,0E0,0E0,0E0,0E0,0E0,0E0,0E0,0E0,0E0,0E0,0E0,0E0,0E0,0E0,0E0,0E0],"parents":[2147483647,0,0,1,1,2,2,3,3,4,4,5,5,6,6,7,7,8,8,9,9,10,10,11,11,12,12,13,13,14,14,15,15,16,16,17,17,18,18,19,19,20,20,21,21,22,22,23,23,24,24,25,25,26,26,27,27,28,28,29,29,30,30,31,31,32,32,33,33,34,34,35,35,36,36,37,37,38,38,39,39,40,40,41,41,42,42,43,43,44,44,45,45,46,46,47,47,48,48,49,49,50,50,51,51,52,52,53,53,54,54,55,55,56,56,57,57,58,58,59,59,60,60,61,61,62,62],"right_children":[2,4,6,8,10,12,14,16,18,20,22,24,26,28,30,32,34,36,38,40,42,44,46,48,50,52,54,56,58,60,62,64,66,68,70,72,74,76,78,80,82,84,86,88,90,92,94,96,98,100,102,104,106,108,110,112,114,116,118,120,122,124,126,-1,-1,-1,-1,-1,-1,-1,-1,-1,-1,-1,-1,-1,-1,-1,-1,-1,-1,-1,-1,-1,-1,-1,-1,-1,-1,-1,-1,-1,-1,-1,-1,-1,-1,-1,-1,-1,-1,-1,-1,-1,-1,-1,-1,-1,-1,-1,-1,-1,-1,-1,-1,-1,-1,-1,-1,-1,-1,-1,-1,-1,-1,-1,-1],"split_conditions":[3.3152E4,2.6309E4,4.0465E4,2.35E4,2.9409E4,3.6181E4,4.6473E4,2.1925E4,7E0,6E0,3.0293E4,6E0,6E0,6E0,6E0,6E0,7E0,2.4803E4,5E0,2.9168E4,2.491E4,7E0,6E0,3.5251E4,2.7634E4,3.8194E4,1.5E1,4.2355E4,4.3324E4,5.0496E4,5.1891E4,6E0,5E0,2.2215E4,5E0,2.3956E4,2.3501E4,4E0,6E0,7E0,3.0786E4,6E0,5E0,2.8192E4,4E0,4E0,3.64E2,3.4395E4,4E0,6E0,1.8E1,3.709E4,3.9669E4,6E0,3.7701E4,1E0,5.0598E4,1.9E1,1.4E1,1.6E2,5.3828E4,4.6531E4,2.006E3,-2.4737706E2,-2.7135074E2,-1.8123091E2,-2.3108087E2,-2.3595609E2,-2.1115056E2,-1.0826988E2,-1.779731E2,-1.9706415E2,-1.7538869E2,-1.7500706E2,-1.4716434E2,-1.2662404E2,-6.644374E1,-1.2962619E2,-2.1624811E2,-1.108814E2,-8.1334236E1,-5.4399517E1,-1.9710884E1,-1.2416661E2,-1.8882434E2,-8.0381096E1,-1.27181625E2,-1.0226481E2,-6.2987167E1,-5.0537537E1,-2.0875057E1,-5.374076E-1,4.1341602E1,-6.703116E1,1.0463254E2,4.117473E1,7.0796265E1,7.922012E1,1.18610275E2,9.524406E0,-8.2119896E1,-3.4925385E1,1.6410937E0,1.1274834E2,1.4877007E2,1.6127286E2,1.980062E2,1.27040535E2,5.822287E0,4.446316E1,8.3969055E1,1.8438373E2,2.2956891E2,2.7763687E2,3.5521298E2,9.120677E1,1.490082E2,1.3391002E2,1.9071106E2,2.834582E2,3.7290115E2,4.4456284E2,5.330395E2,2.4059622E2,3.1828522E2,2.8716547E2,3.6241965E2],"split_indices":[6,6,6,6,7,6,6,6,0,1,6,1,1,1,1,0,0,6,1,6,7,0,1,7,7,6,0,6,6,6,6,1,1,7,1,7,7,1,1,0,6,0,0,6,1,1,5,6,1,0,0,7,7,0,6,1,7,0,0,5,6,7,4,0,0,0,0,0,0,0,0,0,0,0,0,0,0,0,0,0,0,0,0,0,0,0,0,0,0,0,0,0,0,0,0,0,0,0,0,0,0,0,0,0,0,0,0,0,0,0,0,0,0,0,0,0,0,0,0,0,0,0,0,0,0,0,0],"split_type":[0,0,0,0,0,0,0,0,0,0,0,0,0,0,0,0,0,0,0,0,0,0,0,0,0,0,0,0,0,0,0,0,0,0,0,0,0,0,0,0,0,0,0,0,0,0,0,0,0,0,0,0,0,0,0,0,0,0,0,0,0,0,0,0,0,0,0,0,0,0,0,0,0,0,0,0,0,0,0,0,0,0,0,0,0,0,0,0,0,0,0,0,0,0,0,0,0,0,0,0,0,0,0,0,0,0,0,0,0,0,0,0,0,0,0,0,0,0,0,0,0,0,0,0,0,0,0],"sum_hessian":[1.44405E5,8.9686E4,5.4719E4,2.7072E4,6.2614E4,4.006E4,1.4659E4,1.127E4,1.5802E4,2.3991E4,3.8623E4,2.2009E4,1.8051E4,1.0135E4,4.524E3,4.53E3,6.74E3,1.1509E4,4.293E3,1.7672E4,6.319E3,1.6145E4,2.2478E4,1.8555E4,3.454E3,1.532E4,2.731E3,8.488E3,1.647E3,3.727E3,7.97E2,3.762E3,7.68E2,6.021E3,7.19E2,5.542E3,5.967E3,1.917E3,2.376E3,1.0838E4,6.834E3,1.789E3,4.53E3,3.75E3,1.2395E4,2.1036E4,1.442E3,1.085E4,7.705E3,7.89E2,2.665E3,8.616E3,6.704E3,1.278E3,1.453E3,3.811E3,4.677E3,9.61E2,6.86E2,2.314E3,1.413E3,5.94E2,2.03E2,2.987E3,7.75E2,1.99E2,5.69E2,1.493E3,4.528E3,2.58E2,4.61E2,2.036E3,3.506E3,1.025E3,4.942E3,3.34E2,1.583E3,2.198E3,1.78E2,5.78E3,5.058E3,3.962E3,2.872E3,4.19E2,1.37E3,7.85E2,3.745E3,1.62E3,2.13E3,5.466E3,6.929E3,1.576E4,5.276E3,1.42E3,2.2E1,5.538E3,5.312E3,5.504E3,2.201E3,4.7E1,7.42E2,1.612E3,1.053E3,4.838E3,3.778E3,4.361E3,2.343E3,6.9E1,1.209E3,6.16E2,8.37E2,7.96E2,3.015E3,4.313E3,3.64E2,5.84E2,3.77E2,1.8E2,5.06E2,1.68E2,2.146E3,9.41E2,4.72E2,5.27E2,6.7E1,4.6E1,1.57E2],"tree_param":{"num_deleted":"0","num_feature":"8","num_nodes":"127","size_leaf_vector":"1"}},{"base_weights":[1.2868068E-1,-2.3769492E3,5.3298086E3,-5.215295E3,-7.3039014E2,3.8182925E3,1.0094103E4,-6.748223E3,-3.8988274E3,-2.098472E3,2.616824E2,2.7636821E3,5.4003936E3,8.855228E3,1.3551325E4,-7.62104E3,-5.987715E3,-4.5288896E3,-2.714536E3,-1.5010876E3,-3.7736367E3,-4.5385812E2,1.2504529E3,3.278974E3,-7.23814E1,5.9374395E3,2.368982E3,9.504193E3,5.705126E3,1.4329935E4,9.825389E3,-7.76646E3,-6.074214E3,-6.277387E3,-4.329571E3,-5.5043984E3,-4.2769707E3,-1.8571055E3,-3.582756E3,-2.1251096E3,-2.8198605E2,-4.5200093E3,-2.8097017E3,-3.4644235E2,-2.7854202E3,1.4418855E3,-1.1221333E3,2.6418367E3,3.9116626E3,-1.068654E3,5.9290344E2,5.181567E3,6.698749E3,1.5185938E3,3.2667979E3,8.621591E3,1.0689504E4,4.7644854E3,6.85177E3,1.3585198E4,1.723607E4,8.808182E3,1.121827E4,-2.4878732E2,-2.2397911E2,-1.2134502E2,-2.0157712E2,-2.0041681E2,-1.7830078E2,-8.70833E1,-1.5355573E2,-1.590809E2,-2.3295772E2,-1.4355751E2,-1.1539576E2,-4.1729973E1,-1.0101691E2,-1.3210222E2,-9.751754E1,-7.558826E1,-4.7995922E1,-1.9070524E1,1.7515154E1,-7.145002E1,-1.485575E2,-8.455618E0,-9.067731E1,-2.2899813E1,1.0473131E1,-8.8200554E1,8.215818E1,3.4182297E1,7.16653E1,2.4123812E1,-3.901527E1,7.34143E1,1.1921062E2,1.0766604E2,1.506531E2,5.551578E1,-4.3961758E1,-4.493334E0,3.644236E1,1.25619125E2,1.6524838E2,1.6681532E2,2.0990538E2,2.4566425E1,7.275591E1,6.503116E1,1.0642635E2,2.5244402E2,3.4508386E2,2.5971503E2,3.278963E2,7.858098E1,1.5551385E2,1.9710164E2,2.766651E2,3.2503897E2,4.1585455E2,4.2874274E2,5.288778E2,2.5220627E2,3.3495276E2,2.7873383E2,3.5161594E2],"categories":[],"categories_nodes":[],"categories_segments":[],"categories_sizes":[],"default_left":[0,0,0,0,0,0,0,0,0,0,0,0,0,0,0,0,0,0,0,0,0,0,0,0,0,0,0,0,0,0,0,0,0,0,0,0,0,0,0,0,0,0,0,0,0,0,0,0,0,0,0,0,0,0,0,0,0,0,0,0,0,0,0,0,0,0,0,0,0,0,0,0,0,0,0,0,0,0,0,0,0,0,0,0,0,0,0,0,0,0,0,0,0,0,0,0,0,0,0,0,0,0,0,0,0,0,0,0,0,0,0,0,0,0,0,0,0,0,0,0,0,0,0,0,0,0,0],"id":8,"left_children":[1,3,5,7,9,11,13,15,17,19,21,23,25,27,29,31,33,35,37,39,41,43,45,47,49,51,53,55,57,59,61,63,65,67,69,71,73,75,77,79,81,83,85,87,89,91,93,95,97,99,101,103,105,107,109,111,113,115,117,119,121,123,125,-1,-1,-1,-1,-1,-1,-1,-1,-1,-1,-1,-1,-1,-1,-1,-1,-1,-1,-1,-1,-1,-1,-1,-1,-1,-1,-1,-1,-1,-1,-1,-1,-1,-1,-1,-1,-1,-1,-1,-1,-1,-1,-1,-1,-1,-1,-1,-1,-1,-1,-1,-1,-1,-1,-1,-1,-1,-1,-1,-1,-1,-1,-1,-1],"loss_changes":[1.8295017E12,4.667204E11,3.2071496E11,7.3963405E10,8.578196E10,5.6405426E10,4.582441E10,1.1197612E10,1.4707524E10,2.6580402E10,2.5921442E10,2.9654974E10,2.2003122E10,1.6095838E10,8.063353E9,1.7260216E9,4.3226235E9,3.140485E9,5.0949816E9,1.4898614E10,5.011251E9,5.3225257E9,6.9879726E9,6.9118525E9,2.0692484E9,6.576079E9,1.5502725E9,6.759121E9,1.4255964E9,4.82381E9,5.9827814E8,1.0773791E9,8.655606E8,9.982116E8,1.5048008E9,1.1622564E9,2.2213263E9,2.4236984E9,9.136005E8,2.680152E9,2.0313583E9,3.6215112E9,1.6404009E9,5.892601E9,8.074015E8,4.0743444E9,3.9584026E8,2.2096486E9,3.0687068E9,1.4503982E9,8.647283E8,1.8509332E9,1.9019366E9,6.628255E8,2.977915E8,2.1428306E9,1.2688097E9,6.574264E8,3.4475008E8,1.2688097E9,2.9568205E8,1.7948467E8,8.855962E7,0E0,0E0,0E0,0E0,0E0,0E0,0E0,0E0,0E0,0E0,0E0,0E0,0E0,0E0,0E0,0E0,0E0,0E0,0E0,0E0,0E0,0E0,0E0,0E0,0E0,0E0,0E0,0E0,0E0,0E0,0E0,0E0,0E0,0E0,0E0,0E0,0E0,0E0,0E0,0E0,0E0,0E0,0E0,0E0,0E0,0E0,0E0,0E0,0E0,0E0,0E0,0E0,0E0,0E0,0E0,0E0,0E0,0E0,0E0,0E0,0E0,0E0,0E0,0E0],"parents":[2147483647,0,0,1,1,2,2,3,3,4,4,5,5,6,6,7,7,8,8,9,9,10,10,11,11,12,12,13,13,14,14,15,15,16,16,17,17,18,18,19,19,20,20,21,21,22,22,23,23,24,24,25,25,26,26,27,27,28,28,29,29,30,30,31,31,32,32,33,33,34,34,35,35,36,36,37,37,38,38,39,39,40,40,41,41,42,42,43,43,44,44,45,45,46,46,47,47,48,48,49,49,50,50,51,51,52,52,53,53,54,54,55,55,56,56,57,57,58,58,59,59,60,60,61,61,62,62],"right_children":[2,4,6,8,10,12,14,16,18,20,22,24,26,28,30,32,34,36,38,40,42,44,46,48,50,52,54,56,58,60,62,64,66,68,70,72,74,76,78,80,82,84,86,88,90,92,94,96,98,100,102,104,106,108,110,112,114,116,118,120,122,124,126,-1,-1,-1,-1,-1,-1,-1,-1,-1,-1,-1,-1,-1,-1,-1,-1,-1,-1,-1,-1,-1,-1,-1,-1,-1,-1,-1,-1,-1,-1,-1,-1,-1,-1,-1,-1,-1,-1,-1,-1,-1,-1,-1,-1,-1,-1,-1,-1,-1,-1,-1,-1,-1,-1,-1,-1,-1,-1,-1,-1,-1,-1,-1,-1],"split_conditions":[3.4395E4,2.7636E4,4.2069E4,2.4609E4,3.0562E4,3.7821E4,4.853E4,2.2775E4,8E0,6E0,3.2084E4,6E0,6E0,6E0,6E0,7E0,7E0,2.4069E4,5E0,3.0618E4,3.1357E4,6E0,6E0,3.5885E4,1.3E1,3.9529E4,1.7E1,4.4914E4,4.4914E4,5.3828E4,5.1891E4,2.1467E4,5E0,2.3956E4,5E0,7E0,2.6058E4,2.2E1,2.6551E4,2.9232E4,3.2652E4,5E0,6E0,4E0,3.64E2,4E0,6E0,3.9858E4,4E0,6E0,3.5797E4,3.4462E4,1E0,3.9681E4,2.005E3,5.0598E4,1.6E2,2.005E3,4.6531E4,3.5784E4,1.83E2,4.4942E4,2.006E3,-2.4878732E2,-2.2397911E2,-1.2134502E2,-2.0157712E2,-2.0041681E2,-1.7830078E2,-8.70833E1,-1.5355573E2,-1.590809E2,-2.3295772E2,-1.4355751E2,-1.1539576E2,-4.1729973E1,-1.0101691E2,-1.3210222E2,-9.751754E1,-7.558826E1,-4.7995922E1,-1.9070524E1,1.7515154E1,-7.145002E1,-1.485575E2,-8.455618E0,-9.067731E1,-2.2899813E1,1.0473131E1,-8.8200554E1,8.215818E1,3.4182297E1,7.16653E1,2.4123812E1,-3.901527E1,7.34143E1,1.1921062E2,1.0766604E2,1.506531E2,5.551578E1,-4.3961758E1,-4.493334E0,3.644236E1,1.25619125E2,1.6524838E2,1.6681532E2,2.0990538E2,2.4566425E1,7.275591E1,6.503116E1,1.0642635E2,2.5244402E2,3.4508386E2,2.5971503E2,3.278963E2,7.858098E1,1.5551385E2,1.9710164E2,2.766651E2,3.2503897E2,4.1585455E2,4.2874274E2,5.288778E2,2.5220627E2,3.3495276E2,2.7873383E2,3.5161594E2],"split_indices":[6,6,6,6,7,6,6,6,0,1,6,1,1,1,1,0,0,7,1,6,6,1,1,6,0,6,0,6,6,6,6,6,1,7,1,0,6,0,7,6,6,0,0,1,5,1,0,7,1,0,6,7,1,6,4,7,5,4,7,7,5,7,4,0,0,0,0,0,0,0,0,0,0,0,0,0,0,0,0,0,0,0,0,0,0,0,0,0,0,0,0,0,0,0,0,0,0,0,0,0,0,0,0,0,0,0,0,0,0,0,0,0,0,0,0,0,0,0,0,0,0,0,0,0,0,0,0],"split_type":[0,0,0,0,0,0,0,0,0,0,0,0,0,0,0,0,0,0,0,0,0,0,0,0,0,0,0,0,0,0,0,0,0,0,0,0,0,0,0,0,0,0,0,0,0,0,0,0,0,0,0,0,0,0,0,0,0,0,0,0,0,0,0,0,0,0,0,0,0,0,0,0,0,0,0,0,0,0,0,0,0,0,0,0,0,0,0,0,0,0,0,0,0,0,0,0,0,0,0,0,0,0,0,0,0,0,0,0,0,0,0,0,0,0,0,0,0,0,0,0,0,0,0,0,0,0,0],"sum_hessian":[1.44405E5,9.9865E4,4.454E4,3.6663E4,6.3202E4,3.3814E4,1.0726E4,1.6937E4,1.9726E4,2.6566E4,3.6636E4,2.0291E4,1.3523E4,7.899E3,2.827E3,7.882E3,9.055E3,1.2874E4,6.852E3,1.9584E4,6.982E3,2.1255E4,1.5381E4,1.7171E4,3.12E3,1.1487E4,2.036E3,6.548E3,1.351E3,2.336E3,4.91E2,7.201E3,6.81E2,7.706E3,1.349E3,2.638E3,1.0236E4,3.449E3,3.403E3,1.2953E4,6.631E3,3.933E3,3.049E3,2.032E4,9.35E2,1.4233E4,1.148E3,8.558E3,8.613E3,1.249E3,1.871E3,5.768E3,5.719E3,1.047E3,9.89E2,3.758E3,2.79E3,7.45E2,6.06E2,1.864E3,4.72E2,2.88E2,2.03E2,2.607E3,4.594E3,1.66E2,5.15E2,3.483E3,4.223E3,4.82E2,8.67E2,2.425E3,2.13E2,4.689E3,5.547E3,2.637E3,8.12E2,9.77E2,2.426E3,7.395E3,5.558E3,4.708E3,1.923E3,6.62E2,3.271E3,2.37E2,2.812E3,1.2705E4,7.615E3,9.1E2,2.5E1,1.0789E4,3.444E3,9.7E1,1.051E3,7.469E3,1.089E3,6.676E3,1.937E3,1.49E2,1.1E3,8.53E2,1.018E3,1.43E3,4.338E3,1.191E3,4.528E3,5.92E2,4.55E2,2.03E2,7.86E2,3.51E3,2.48E2,2.99E2,2.491E3,1.23E2,6.22E2,5.45E2,6.1E1,1.74E2,1.69E3,6E1,4.12E2,2.5E2,3.8E1,4.6E1,1.57E2],"tree_param":{"num_deleted":"0","num_feature":"8","num_nodes":"127","size_leaf_vector":"1"}},{"base_weights":[1.484517E-1,-2.6980327E3,4.4225127E3,-5.586372E3,-1.3339003E3,2.801314E3,8.85242E3,-6.89717E3,-4.510222E3,-2.7891584E3,-4.6239865E2,1.7550955E3,4.231654E3,7.4199717E3,1.2059146E4,-7.4970293E3,-6.2394272E3,-5.047856E3,-3.2790803E3,-2.2658306E3,-4.20327E3,-1.3707152E3,1.6894612E2,2.2654338E3,-9.820187E2,4.7354487E3,1.3901737E3,8.00702E3,4.39153E3,1.1133462E4,1.4785201E4,-7.706904E3,-6.433318E3,-6.4772227E3,-4.5235815E3,-5.5038784E3,-4.5421196E3,-2.3174602E3,-4.1113354E3,-2.9513613E3,-1.2261119E3,-5.758194E3,-3.80282E3,-2.4537861E3,-1.0524154E3,3.183445E2,-2.0091989E3,1.8867006E3,3.112352E3,-2.3867092E3,-5.735676E2,4.1026597E3,5.458604E3,6.1882654E2,2.3227402E3,6.9114707E3,8.898048E3,3.4832148E3,5.4052485E3,1.1830856E4,7.8469614E3,1.5615058E4,1.0884811E4,-2.437718E2,-2.2254237E2,-1.5765475E2,-2.0926642E2,-2.1827722E2,-1.9036967E2,-9.375158E1,-1.5877588E2,-1.7161461E2,-1.4701018E2,-1.5960876E2,-1.3207684E2,-1.1368487E2,-5.7901276E1,-1.16224495E2,-2.0375497E2,-9.95714E1,-7.146046E1,-5.0635857E1,-1.8699137E1,-1.3294365E2,-1.9137564E2,-7.234885E1,-1.2233859E2,-9.306286E1,-5.9600826E1,-4.777823E1,-1.8370863E1,-4.133857E-1,3.930752E1,-6.28441E1,1.01011024E2,4.438237E1,7.502076E1,8.2067825E1,1.1929655E2,9.462729E0,-7.666033E1,-3.1368944E1,4.367913E0,1.13514595E2,1.5615224E2,1.5140775E2,1.8667134E2,1.221477E2,1.3662707E1,4.322144E1,8.1770744E1,1.7354457E2,2.1620714E2,2.259993E2,2.7676926E2,8.362138E1,1.3707103E2,1.540391E2,2.4453786E2,3.2741623E2,3.8208258E2,2.2510199E2,2.9001932E2,4.3399127E2,5.0163034E2,2.705497E2,3.411342E2],"categories":[],"categories_nodes":[],"categories_segments":[],"categories_sizes":[],"default_left":[0,0,0,0,0,0,0,0,0,0,0,0,0,0,0,0,0,0,0,0,0,0,0,0,0,0,0,0,0,0,0,0,0,0,0,0,0,0,0,0,0,0,0,0,0,0,0,0,0,0,0,0,0,0,0,0,0,0,0,0,0,0,0,0,0,0,0,0,0,0,0,0,0,0,0,0,0,0,0,0,0,0,0,0,0,0,0,0,0,0,0,0,0,0,0,0,0,0,0,0,0,0,0,0,0,0,0,0,0,0,0,0,0,0,0,0,0,0,0,0,0,0,0,0,0,0,0],"id":9,"left_children":[1,3,5,7,9,11,13,15,17,19,21,23,25,27,29,31,33,35,37,39,41,43,45,47,49,51,53,55,57,59,61,63,65,67,69,71,73,75,77,79,81,83,85,87,89,91,93,95,97,99,101,103,105,107,109,111,113,115,117,119,121,123,125,-1,-1,-1,-1,-1,-1,-1,-1,-1,-1,-1,-1,-1,-1,-1,-1,-1,-1,-1,-1,-1,-1,-1,-1,-1,-1,-1,-1,-1,-1,-1,-1,-1,-1,-1,-1,-1,-1,-1,-1,-1,-1,-1,-1,-1,-1,-1,-1,-1,-1,-1,-1,-1,-1,-1,-1,-1,-1,-1,-1,-1,-1,-1,-1],"loss_changes":[1.7231137E12,3.5336625E11,3.9296106E11,4.05523E10,7.7258555E10,5.994178E10,6.7250815E10,5.0701926E9,1.0442867E10,1.6876061E10,2.185024E10,3.2324035E10,2.4219058E10,1.7985044E10,1.1254039E10,1.4635827E9,2.4971674E9,2.5112084E9,3.8367764E9,1.1868094E10,3.814998E9,5.3836534E9,7.3155625E9,6.249824E9,2.0853507E9,6.5552056E9,1.8328602E9,8.225161E9,1.4986097E9,7.658668E9,3.5329147E9,6.239027E8,6.807511E8,5.2504166E8,7.9753626E8,7.273513E8,5.4347366E8,1.265579E9,1.6108093E9,2.0932444E9,1.8416005E9,1.0098401E9,1.8668503E9,1.06824294E9,2.869888E9,6.9303603E9,6.7116544E8,3.3670185E9,1.9508306E9,3.740037E8,9.5717914E8,2.6762609E9,2.0768522E9,7.863216E8,4.062208E8,1.2271288E9,2.0219494E9,6.461061E8,5.3553766E8,2.1752381E9,2.9957734E8,9.535488E8,8.262861E7,0E0,0E0,0E0,0E0,0E0,0E0,0E0,0E0,0E0,0E0,0E0,0E0,0E0,0E0,0E0,0E0,0E0,0E0,0E0,0E0,0E0,0E0,0E0,0E0,0E0,0E0,0E0,0E0,0E0,0E0,0E0,0E0,0E0,0E0,0E0,0E0,0E0,0E0,0E0,0E0,0E0,0E0,0E0,0E0,0E0,0E0,0E0,0E0,0E0,0E0,0E0,0E0,0E0,0E0,0E0,0E0,0E0,0E0,0E0,0E0,0E0,0E0,0E0,0E0],"parents":[2147483647,0,0,1,1,2,2,3,3,4,4,5,5,6,6,7,7,8,8,9,9,10,10,11,11,12,12,13,13,14,14,15,15,16,16,17,17,18,18,19,19,20,20,21,21,22,22,23,23,24,24,25,25,26,26,27,27,28,28,29,29,30,30,31,31,32,32,33,33,34,34,35,35,36,36,37,37,38,38,39,39,40,40,41,41,42,42,43,43,44,44,45,45,46,46,47,47,48,48,49,49,50,50,51,51,52,52,53,53,54,54,55,55,56,56,57,57,58,58,59,59,60,60,61,61,62,62],"right_children":[2,4,6,8,10,12,14,16,18,20,22,24,26,28,30,32,34,36,38,40,42,44,46,48,50,52,54,56,58,60,62,64,66,68,70,72,74,76,78,80,82,84,86,88,90,92,94,96,98,100,102,104,106,108,110,112,114,116,118,120,122,124,126,-1,-1,-1,-1,-1,-1,-1,-1,-1,-1,-1,-1,-1,-1,-1,-1,-1,-1,-1,-1,-1,-1,-1,-1,-1,-1,-1,-1,-1,-1,-1,-1,-1,-1,-1,-1,-1,-1,-1,-1,-1,-1,-1,-1,-1,-1,-1,-1,-1,-1,-1,-1,-1,-1,-1,-1,-1,-1,-1,-1,-1,-1,-1,-1],"split_conditions":[3.3152E4,2.6551E4,4.0465E4,2.3852E4,2.9409E4,3.6376E4,4.6473E4,2.2506E4,7E0,6E0,3.0293E4,6E0,6E0,6E0,5.1891E4,6E0,7E0,2.5228E4,5E0,2.9232E4,2.4289E4,7E0,6E0,3.6464E4,2.7634E4,3.8194E4,1.7E1,4.2355E4,4.299E4,6E0,6E0,2.1467E4,5E0,1E0,5E0,2.6944E4,1E0,4E0,6E0,8E0,3.0786E4,7E0,5E0,2.8266E4,4E0,4E0,3.64E2,3.4779E4,4E0,6E0,1.8E1,4E0,3.9669E4,6E0,3.7455E4,1E0,1.6E2,1.9E1,4.5955E4,4.853E4,4.4942E4,5.3828E4,2.006E3,-2.437718E2,-2.2254237E2,-1.5765475E2,-2.0926642E2,-2.1827722E2,-1.9036967E2,-9.375158E1,-1.5877588E2,-1.7161461E2,-1.4701018E2,-1.5960876E2,-1.3207684E2,-1.1368487E2,-5.7901276E1,-1.16224495E2,-2.0375497E2,-9.95714E1,-7.146046E1,-5.0635857E1,-1.8699137E1,-1.3294365E2,-1.9137564E2,-7.234885E1,-1.2233859E2,-9.306286E1,-5.9600826E1,-4.777823E1,-1.8370863E1,-4.133857E-1,3.930752E1,-6.28441E1,1.01011024E2,4.438237E1,7.502076E1,8.2067825E1,1.1929655E2,9.462729E0,-7.666033E1,-3.1368944E1,4.367913E0,1.13514595E2,1.5615224E2,1.5140775E2,1.8667134E2,1.221477E2,1.3662707E1,4.322144E1,8.1770744E1,1.7354457E2,2.1620714E2,2.259993E2,2.7676926E2,8.362138E1,1.3707103E2,1.540391E2,2.4453786E2,3.2741623E2,3.8208258E2,2.2510199E2,2.9001932E2,4.3399127E2,5.0163034E2,2.705497E2,3.411342E2],"split_indices":[6,6,6,6,7,6,6,6,0,1,6,1,1,1,6,0,0,6,1,6,7,0,1,7,7,6,0,6,6,1,1,6,1,1,1,7,1,1,1,0,6,0,0,6,1,1,5,6,1,0,0,1,7,0,6,1,5,0,7,6,7,6,4,0,0,0,0,0,0,0,0,0,0,0,0,0,0,0,0,0,0,0,0,0,0,0,0,0,0,0,0,0,0,0,0,0,0,0,0,0,0,0,0,0,0,0,0,0,0,0,0,0,0,0,0,0,0,0,0,0,0,0,0,0,0,0,0],"split_type":[0,0,0,0,0,0,0,0,0,0,0,0,0,0,0,0,0,0,0,0,0,0,0,0,0,0,0,0,0,0,0,0,0,0,0,0,0,0,0,0,0,0,0,0,0,0,0,0,0,0,0,0,0,0,0,0,0,0,0,0,0,0,0,0,0,0,0,0,0,0,0,0,0,0,0,0,0,0,0,0,0,0,0,0,0,0,0,0,0,0,0,0,0,0,0,0,0,0,0,0,0,0,0,0,0,0,0,0,0,0,0,0,0,0,0,0,0,0,0,0,0,0,0,0,0,0,0],"sum_hessian":[1.44405E5,8.9686E4,5.4719E4,2.8769E4,6.0917E4,4.006E4,1.4659E4,1.2968E4,1.5801E4,2.2816E4,3.8101E4,2.3138E4,1.6922E4,1.0135E4,4.524E3,6.777E3,6.191E3,1.0996E4,4.805E3,1.6655E4,6.161E3,1.5623E4,2.2478E4,1.9502E4,3.636E3,1.4373E4,2.549E3,8.488E3,1.647E3,3.381E3,1.143E3,5.655E3,1.122E3,5.435E3,7.56E2,5.777E3,5.219E3,2.231E3,2.574E3,1.0036E4,6.619E3,1.259E3,4.902E3,3.547E3,1.2076E4,2.1036E4,1.442E3,1.3478E4,6.024E3,8.18E2,2.818E3,7.669E3,6.704E3,1.396E3,1.153E3,3.811E3,4.677E3,8.71E2,7.76E2,2.787E3,5.94E2,9.4E2,2.03E2,2.297E3,3.358E3,3.57E2,7.65E2,7.61E2,4.674E3,2.7E2,4.86E2,4.245E3,1.532E3,7.88E2,4.431E3,4.63E2,1.768E3,2.367E3,2.07E2,6.095E3,3.941E3,3.747E3,2.872E3,4.04E2,8.55E2,8.11E2,4.091E3,1.483E3,2.064E3,5.42E3,6.656E3,1.576E4,5.276E3,1.42E3,2.2E1,8.105E3,5.373E3,4.198E3,1.826E3,4.8E1,7.7E2,1.701E3,1.117E3,5.952E3,1.717E3,4.361E3,2.343E3,6.2E1,1.334E3,3.63E2,7.9E2,7.96E2,3.015E3,9.1E2,3.767E3,5.33E2,3.38E2,7.09E2,6.7E1,1.391E3,1.396E3,5.04E2,9E1,4.68E2,4.72E2,4.6E1,1.57E2],"tree_param":{"num_deleted":"0","num_feature":"8","num_nodes":"127","size_leaf_vector":"1"}},{"base_weights":[1.5717268E-1,-2.6171306E3,4.289936E3,-5.4188716E3,-1.2938978E3,2.717302E3,8.58714E3,-6.794747E3,-4.453762E3,-2.7055166E3,-4.485301E2,1.6720558E3,4.0650112E3,7.1975215E3,1.1697984E4,-7.448353E3,-6.303347E3,-4.970613E3,-3.2105105E3,-2.1978696E3,-4.0772568E3,-1.3296079E3,1.6388182E2,2.1657046E3,-9.805412E2,4.5568677E3,1.3024966E3,7.7669146E3,4.26016E3,1.0491037E4,1.3671286E4,-7.631084E3,-6.5419736E3,-6.521291E3,-4.561833E3,-5.4081987E3,-4.405912E3,-2.259767E3,-4.0230173E3,-2.862837E3,-1.1893385E3,-5.311181E3,-3.5998108E3,-2.2415247E3,-9.737284E2,3.0879675E2,-1.9488969E3,1.674925E3,2.7589937E3,-2.3461226E3,-5.817645E2,3.949058E3,5.294897E3,4.0908896E2,2.0853638E3,6.8107773E3,8.732995E3,3.573834E3,5.5312847E3,1.1146432E4,7.423308E3,1.4459338E4,9.923854E3,-2.2424124E2,-2.4724174E2,-1.6171312E2,-2.0921782E2,-2.087727E2,-1.8835669E2,-9.679635E1,-1.5899304E2,-1.6836765E2,-1.4448741E2,-1.5482657E2,-1.2811545E2,-1.1019166E2,-5.6912415E1,-1.1390723E2,-1.9709499E2,-9.6584724E1,-6.9317184E1,-4.803759E1,-1.6603539E1,-1.2136417E2,-1.7618748E2,-7.33079E1,-1.1660635E2,-8.688647E1,-5.3613033E1,-2.113803E1,-5.8722378E1,-4.0096462E-1,3.8128544E1,-6.096012E1,9.811243E1,3.8335625E1,6.674675E1,7.260397E1,1.0889667E2,8.295472E0,-7.530561E1,-3.1151188E1,3.3050523E0,1.0522902E2,1.409276E2,1.5369858E2,2.1214386E2,1.17127235E2,6.262824E0,3.2355103E1,7.296373E1,1.8199722E2,2.1737743E2,2.5625583E2,3.2665445E2,8.222247E1,1.3393384E2,1.580853E2,2.4045085E2,2.905732E2,3.4578726E2,2.1283717E2,2.924722E2,4.067909E2,4.866133E2,2.7361588E2,3.4272876E2],"categories":[],"categories_nodes":[],"categories_segments":[],"categories_sizes":[],"default_left":[0,0,0,0,0,0,0,0,0,0,0,0,0,0,0,0,0,0,0,0,0,0,0,0,0,0,0,0,0,0,0,0,0,0,0,0,0,0,0,0,0,0,0,0,0,0,0,0,0,0,0,0,0,0,0,0,0,0,0,0,0,0,0,0,0,0,0,0,0,0,0,0,0,0,0,0,0,0,0,0,0,0,0,0,0,0,0,0,0,0,0,0,0,0,0,0,0,0,0,0,0,0,0,0,0,0,0,0,0,0,0,0,0,0,0,0,0,0,0,0,0,0,0,0,0,0,0],"id":10,"left_children":[1,3,5,7,9,11,13,15,17,19,21,23,25,27,29,31,33,35,37,39,41,43,45,47,49,51,53,55,57,59,61,63,65,67,69,71,73,75,77,79,81,83,85,87,89,91,93,95,97,99,101,103,105,107,109,111,113,115,117,119,121,123,125,-1,-1,-1,-1,-1,-1,-1,-1,-1,-1,-1,-1,-1,-1,-1,-1,-1,-1,-1,-1,-1,-1,-1,-1,-1,-1,-1,-1,-1,-1,-1,-1,-1,-1,-1,-1,-1,-1,-1,-1,-1,-1,-1,-1,-1,-1,-1,-1,-1,-1,-1,-1,-1,-1,-1,-1,-1,-1,-1,-1,-1,-1,-1,-1],"loss_changes":[1.621342E12,3.3249454E11,3.697705E11,3.8172623E10,7.269447E10,5.642666E10,6.3289295E10,3.761963E9,1.0851287E10,1.5879881E10,2.0559393E10,2.954858E10,2.3769645E10,1.6919495E10,1.0633609E10,7.921336E8,2.5420923E9,2.9275914E9,3.8293914E9,1.1166777E10,3.6111155E9,5.0683126E9,6.883069E9,5.534671E9,1.9269292E9,6.641877E9,1.849811E9,7.7818757E9,1.4179553E9,5.571019E9,4.9182147E9,3.416228E8,3.9018086E8,5.960499E8,7.288156E8,7.852851E8,5.1154944E8,1.1678679E9,1.5172076E9,1.9695206E9,1.7330985E9,1.1970191E9,1.4661878E9,1.2993905E9,2.9742572E9,6.5208545E9,6.325642E8,2.271322E9,2.5324298E9,3.4491955E8,8.6642854E8,2.676097E9,2.0079903E9,8.653044E8,4.8966298E8,1.3391299E9,1.6451502E9,7.838966E8,3.3226547E8,1.1726356E9,3.115868E8,2.0203438E9,2.586112E8,0E0,0E0,0E0,0E0,0E0,0E0,0E0,0E0,0E0,0E0,0E0,0E0,0E0,0E0,0E0,0E0,0E0,0E0,0E0,0E0,0E0,0E0,0E0,0E0,0E0,0E0,0E0,0E0,0E0,0E0,0E0,0E0,0E0,0E0,0E0,0E0,0E0,0E0,0E0,0E0,0E0,0E0,0E0,0E0,0E0,0E0,0E0,0E0,0E0,0E0,0E0,0E0,0E0,0E0,0E0,0E0,0E0,0E0,0E0,0E0,0E0,0E0,0E0,0E0],"parents":[2147483647,0,0,1,1,2,2,3,3,4,4,5,5,6,6,7,7,8,8,9,9,10,10,11,11,12,12,13,13,14,14,15,15,16,16,17,17,18,18,19,19,20,20,21,21,22,22,23,23,24,24,25,25,26,26,27,27,28,28,29,29,30,30,31,31,32,32,33,33,34,34,35,35,36,36,37,37,38,38,39,39,40,40,41,41,42,42,43,43,44,44,45,45,46,46,47,47,48,48,49,49,50,50,51,51,52,52,53,53,54,54,55,55,56,56,57,57,58,58,59,59,60,60,61,61,62,62],"right_children":[2,4,6,8,10,12,14,16,18,20,22,24,26,28,30,32,34,36,38,40,42,44,46,48,50,52,54,56,58,60,62,64,66,68,70,72,74,76,78,80,82,84,86,88,90,92,94,96,98,100,102,104,106,108,110,112,114,116,118,120,122,124,126,-1,-1,-1,-1,-1,-1,-1,-1,-1,-1,-1,-1,-1,-1,-1,-1,-1,-1,-1,-1,-1,-1,-1,-1,-1,-1,-1,-1,-1,-1,-1,-1,-1,-1,-1,-1,-1,-1,-1,-1,-1,-1,-1,-1,-1,-1,-1,-1,-1,-1,-1,-1,-1,-1,-1,-1,-1,-1,-1,-1,-1,-1,-1,-1],"split_conditions":[3.3152E4,2.6551E4,4.0465E4,2.3621E4,2.9409E4,3.6275E4,4.6473E4,2.2063E4,7E0,6E0,3.0293E4,6E0,6E0,6E0,5.0496E4,6E0,7E0,2.5228E4,5E0,2.9232E4,2.491E4,8E0,6E0,3.4924E4,2.7634E4,3.8194E4,1.5E1,4.2634E4,4.3671E4,6E0,6E0,6E0,5E0,2.278E4,5E0,2.6944E4,1E0,4E0,6E0,8E0,3.0946E4,7E0,6E0,2.8266E4,5E0,4E0,3.64E2,3.462E4,4E0,6E0,1.8E1,3.7926E4,4.5955E4,6E0,2.006E3,1.73E2,5.0598E4,1.8E1,4.5955E4,3.8174E4,4.6531E4,5.3828E4,5.3828E4,-2.2424124E2,-2.4724174E2,-1.6171312E2,-2.0921782E2,-2.087727E2,-1.8835669E2,-9.679635E1,-1.5899304E2,-1.6836765E2,-1.4448741E2,-1.5482657E2,-1.2811545E2,-1.1019166E2,-5.6912415E1,-1.1390723E2,-1.9709499E2,-9.6584724E1,-6.9317184E1,-4.803759E1,-1.6603539E1,-1.2136417E2,-1.7618748E2,-7.33079E1,-1.1660635E2,-8.688647E1,-5.3613033E1,-2.113803E1,-5.8722378E1,-4.0096462E-1,3.8128544E1,-6.096012E1,9.811243E1,3.8335625E1,6.674675E1,7.260397E1,1.0889667E2,8.295472E0,-7.530561E1,-3.1151188E1,3.3050523E0,1.0522902E2,1.409276E2,1.5369858E2,2.1214386E2,1.17127235E2,6.262824E0,3.2355103E1,7.296373E1,1.8199722E2,2.1737743E2,2.5625583E2,3.2665445E2,8.222247E1,1.3393384E2,1.580853E2,2.4045085E2,2.905732E2,3.4578726E2,2.1283717E2,2.924722E2,4.067909E2,4.866133E2,2.7361588E2,3.4272876E2],"split_indices":[6,6,6,6,7,6,6,6,0,1,6,1,1,1,6,0,0,6,1,6,7,0,1,7,7,6,0,6,6,1,1,1,1,7,1,7,1,1,1,0,6,0,0,6,1,1,5,6,1,0,0,7,7,0,4,5,7,0,7,7,7,6,6,0,0,0,0,0,0,0,0,0,0,0,0,0,0,0,0,0,0,0,0,0,0,0,0,0,0,0,0,0,0,0,0,0,0,0,0,0,0,0,0,0,0,0,0,0,0,0,0,0,0,0,0,0,0,0,0,0,0,0,0,0,0,0,0],"split_type":[0,0,0,0,0,0,0,0,0,0,0,0,0,0,0,0,0,0,0,0,0,0,0,0,0,0,0,0,0,0,0,0,0,0,0,0,0,0,0,0,0,0,0,0,0,0,0,0,0,0,0,0,0,0,0,0,0,0,0,0,0,0,0,0,0,0,0,0,0,0,0,0,0,0,0,0,0,0,0,0,0,0,0,0,0,0,0,0,0,0,0,0,0,0,0,0,0,0,0,0,0,0,0,0,0,0,0,0,0,0,0,0,0,0,0,0,0,0,0,0,0,0,0,0,0,0,0],"sum_hessian":[1.44405E5,8.9686E4,5.4719E4,2.8769E4,6.0917E4,4.006E4,1.4659E4,1.1858E4,1.6911E4,2.2816E4,3.8101E4,2.2563E4,1.7497E4,1.0135E4,4.524E3,5.083E3,6.775E3,1.1943E4,4.968E3,1.6655E4,6.161E3,1.5623E4,2.2478E4,1.9023E4,3.54E3,1.4852E4,2.645E3,8.488E3,1.647E3,2.811E3,1.713E3,4.224E3,8.59E2,6.019E3,7.56E2,6.724E3,5.219E3,2.291E3,2.677E3,1.0036E4,6.619E3,1.716E3,4.445E3,4.384E3,1.1239E4,2.1036E4,1.442E3,1.0413E4,8.61E3,7.99E2,2.741E3,8.148E3,6.704E3,1.236E3,1.409E3,4.27E3,4.218E3,1.072E3,5.75E2,2.314E3,4.97E2,1.413E3,3E2,3.373E3,8.51E2,2.38E2,6.21E2,2.137E3,3.882E3,2.71E2,4.85E2,4.994E3,1.73E3,7.88E2,4.431E3,4.66E2,1.825E3,2.461E3,2.16E2,6.095E3,3.941E3,4.016E3,2.603E3,5.3E2,1.186E3,8.86E2,3.559E3,1.794E3,2.59E3,8.826E3,2.413E3,1.576E4,5.276E3,1.42E3,2.2E1,6.049E3,4.364E3,6.201E3,2.409E3,4.7E1,7.52E2,1.651E3,1.09E3,5.129E3,3.019E3,6.117E3,5.87E2,6.6E1,1.17E3,3.62E2,1.047E3,1.581E3,2.689E3,3.879E3,3.39E2,5.56E2,5.16E2,5.23E2,5.2E1,4.83E2,1.831E3,4.39E2,5.8E1,9.41E2,4.72E2,2E2,1E2],"tree_param":{"num_deleted":"0","num_feature":"8","num_nodes":"127","size_leaf_vector":"1"}},{"base_weights":[1.6509041E-1,-2.171125E3,4.868445E3,-4.766705E3,-6.65397E2,3.4888022E3,9.217074E3,-6.2545337E3,-3.6398203E3,-1.9192047E3,2.438089E2,2.4924785E3,4.8844263E3,8.082965E3,1.2381942E4,-6.960699E3,-5.550699E3,-4.3910376E3,-2.789061E3,-1.3753285E3,-3.4443225E3,-5.077022E2,1.046377E3,2.9653713E3,-1.03033035E2,5.367768E3,2.1481309E3,8.840451E3,5.833434E3,1.3089699E4,8.994932E3,-7.538739E3,-6.609729E3,-5.800665E3,-4.0155667E3,-4.1946396E3,-5.502106E3,-3.7434226E3,-2.0831384E3,-1.9390922E3,-2.7394556E2,-4.2282573E3,-2.6366113E3,-1.6140881E3,-2.9961948E2,1.2120155E3,-1.1143165E3,2.5485845E3,3.7844192E3,-1.1560784E3,4.5100284E2,4.6759463E3,6.122754E3,1.4503335E3,3.053691E3,7.8980728E3,9.7675E3,7.1381973E3,5.20955E3,1.2411816E4,1.5734859E4,8.0742705E3,1.025511E4,-2.2038329E2,-2.4363249E2,-2.0618576E2,-1.7070909E2,-1.933321E2,-1.6865523E2,-8.1086235E1,-1.4247713E2,-1.389824E2,-1.1069967E2,-1.419826E2,-2.0280243E2,-1.2541025E2,-1.0109845E2,-4.911839E1,-8.74813E1,-7.195162E1,-4.7243824E1,-2.1647163E1,9.049399E0,-7.4182976E1,-1.4137733E2,-6.268685E0,-8.552048E1,-6.57033E1,-3.4124218E1,-6.436308E0,-8.612975E1,2.40056E1,5.404219E1,2.2773893E1,-3.886942E1,4.0051853E1,8.300225E1,1.0221825E2,1.4260168E2,4.412958E1,-5.051326E1,-9.267724E0,2.7638199E1,1.0546672E2,1.482837E2,1.7629659E2,2.2319942E2,2.0381544E1,6.695458E1,6.2846138E1,9.9110664E1,2.2592755E2,3.2175443E2,2.8514606E2,3.762751E2,1.9369499E2,2.4897615E2,1.3060666E2,1.8758943E2,2.9332513E2,3.8031296E2,3.8693008E2,4.8347437E2,2.3095967E2,3.0853967E2,2.5395442E2,3.2167984E2],"categories":[],"categories_nodes":[],"categories_segments":[],"categories_sizes":[],"default_left":[0,0,0,0,0,0,0,0,0,0,0,0,0,0,0,0,0,0,0,0,0,0,0,0,0,0,0,0,0,0,0,0,0,0,0,0,0,0,0,0,0,0,0,0,0,0,0,0,0,0,0,0,0,0,0,0,0,0,0,0,0,0,0,0,0,0,0,0,0,0,0,0,0,0,0,0,0,0,0,0,0,0,0,0,0,0,0,0,0,0,0,0,0,0,0,0,0,0,0,0,0,0,0,0,0,0,0,0,0,0,0,0,0,0,0,0,0,0,0,0,0,0,0,0,0,0,0],"id":11,"left_children":[1,3,5,7,9,11,13,15,17,19,21,23,25,27,29,31,33,35,37,39,41,43,45,47,49,51,53,55,57,59,61,63,65,67,69,71,73,75,77,79,81,83,85,87,89,91,93,95,97,99,101,103,105,107,109,111,113,115,117,119,121,123,125,-1,-1,-1,-1,-1,-1,-1,-1,-1,-1,-1,-1,-1,-1,-1,-1,-1,-1,-1,-1,-1,-1,-1,-1,-1,-1,-1,-1,-1,-1,-1,-1,-1,-1,-1,-1,-1,-1,-1,-1,-1,-1,-1,-1,-1,-1,-1,-1,-1,-1,-1,-1,-1,-1,-1,-1,-1,-1,-1,-1,-1,-1,-1,-1],"loss_changes":[1.5264467E12,3.902969E11,2.6719394E11,6.144852E10,7.204995E10,4.7007367E10,3.8402458E10,7.814316E9,1.3322682E10,2.2031933E10,2.209773E10,2.4219329E10,1.86155E10,1.3409976E10,6.661472E9,1.5494349E9,3.0150984E9,2.3944888E9,6.5857536E9,1.216018E10,4.4104417E9,4.355505E9,6.3421624E9,5.688148E9,1.7752998E9,6.222971E9,1.3326664E9,5.0842173E9,1.5851561E9,3.9952056E9,4.8801382E8,2.736292E8,1.149485E9,7.4737254E8,1.0581156E9,2.0653507E9,1.5755633E9,6.6473165E8,2.0852285E9,2.1636915E9,1.7089551E9,2.9998244E9,1.7881805E9,8.1975706E8,3.4836024E9,3.9928934E9,4.297019E8,2.9256417E9,2.0401357E9,1.4566995E9,7.128828E8,1.9178865E9,1.811284E9,7.1965875E8,2.1360538E8,2.9656842E9,2.0482294E9,4.5453312E8,1.1803443E9,1.1793531E9,3.0337434E8,1.6076595E8,7.996006E7,0E0,0E0,0E0,0E0,0E0,0E0,0E0,0E0,0E0,0E0,0E0,0E0,0E0,0E0,0E0,0E0,0E0,0E0,0E0,0E0,0E0,0E0,0E0,0E0,0E0,0E0,0E0,0E0,0E0,0E0,0E0,0E0,0E0,0E0,0E0,0E0,0E0,0E0,0E0,0E0,0E0,0E0,0E0,0E0,0E0,0E0,0E0,0E0,0E0,0E0,0E0,0E0,0E0,0E0,0E0,0E0,0E0,0E0,0E0,0E0,0E0,0E0,0E0,0E0],"parents":[2147483647,0,0,1,1,2,2,3,3,4,4,5,5,6,6,7,7,8,8,9,9,10,10,11,11,12,12,13,13,14,14,15,15,16,16,17,17,18,18,19,19,20,20,21,21,22,22,23,23,24,24,25,25,26,26,27,27,28,28,29,29,30,30,31,31,32,32,33,33,34,34,35,35,36,36,37,37,38,38,39,39,40,40,41,41,42,42,43,43,44,44,45,45,46,46,47,47,48,48,49,49,50,50,51,51,52,52,53,53,54,54,55,55,56,56,57,57,58,58,59,59,60,60,61,61,62,62],"right_children":[2,4,6,8,10,12,14,16,18,20,22,24,26,28,30,32,34,36,38,40,42,44,46,48,50,52,54,56,58,60,62,64,66,68,70,72,74,76,78,80,82,84,86,88,90,92,94,96,98,100,102,104,106,108,110,112,114,116,118,120,122,124,126,-1,-1,-1,-1,-1,-1,-1,-1,-1,-1,-1,-1,-1,-1,-1,-1,-1,-1,-1,-1,-1,-1,-1,-1,-1,-1,-1,-1,-1,-1,-1,-1,-1,-1,-1,-1,-1,-1,-1,-1,-1,-1,-1,-1,-1,-1,-1,-1,-1,-1,-1,-1,-1,-1,-1,-1,-1,-1,-1,-1,-1,-1,-1,-1],"split_conditions":[3.4395E4,2.7636E4,4.2069E4,2.4393E4,3.0562E4,3.7701E4,4.853E4,2.2775E4,2.7556E4,6E0,3.1765E4,6E0,6E0,5E0,6E0,2.206E4,7E0,6E0,7E0,3.0618E4,3.1053E4,7E0,6E0,3.7203E4,1.2E1,3.9529E4,1.8E1,4.4478E4,6E0,5.3828E4,5.1891E4,6E0,6E0,2.264E4,5E0,2.5978E4,6E0,2.6145E4,5E0,2.886E4,3.2084E4,6E0,6E0,2.9596E4,6E0,3.461E4,6E0,8E0,4E0,7E0,3.5526E4,3.3603E4,4.4942E4,2.01E3,2.005E3,4E0,4E0,4.4914E4,4.4914E4,3.5784E4,1.83E2,4.4942E4,2.006E3,-2.2038329E2,-2.4363249E2,-2.0618576E2,-1.7070909E2,-1.933321E2,-1.6865523E2,-8.1086235E1,-1.4247713E2,-1.389824E2,-1.1069967E2,-1.419826E2,-2.0280243E2,-1.2541025E2,-1.0109845E2,-4.911839E1,-8.74813E1,-7.195162E1,-4.7243824E1,-2.1647163E1,9.049399E0,-7.4182976E1,-1.4137733E2,-6.268685E0,-8.552048E1,-6.57033E1,-3.4124218E1,-6.436308E0,-8.612975E1,2.40056E1,5.404219E1,2.2773893E1,-3.886942E1,4.0051853E1,8.300225E1,1.0221825E2,1.4260168E2,4.412958E1,-5.051326E1,-9.267724E0,2.7638199E1,1.0546672E2,1.482837E2,1.7629659E2,2.2319942E2,2.0381544E1,6.695458E1,6.2846138E1,9.9110664E1,2.2592755E2,3.2175443E2,2.8514606E2,3.762751E2,1.9369499E2,2.4897615E2,1.3060666E2,1.8758943E2,2.9332513E2,3.8031296E2,3.8693008E2,4.8347437E2,2.3095967E2,3.0853967E2,2.5395442E2,3.2167984E2],"split_indices":[6,6,6,6,7,6,6,6,7,1,6,1,1,1,1,7,0,1,0,6,6,0,1,7,0,6,0,6,1,6,6,1,0,7,1,6,0,6,1,6,6,0,0,6,1,7,0,0,1,0,6,7,7,4,4,1,1,6,6,7,5,7,4,0,0,0,0,0,0,0,0,0,0,0,0,0,0,0,0,0,0,0,0,0,0,0,0,0,0,0,0,0,0,0,0,0,0,0,0,0,0,0,0,0,0,0,0,0,0,0,0,0,0,0,0,0,0,0,0,0,0,0,0,0,0,0,0],"split_type":[0,0,0,0,0,0,0,0,0,0,0,0,0,0,0,0,0,0,0,0,0,0,0,0,0,0,0,0,0,0,0,0,0,0,0,0,0,0,0,0,0,0,0,0,0,0,0,0,0,0,0,0,0,0,0,0,0,0,0,0,0,0,0,0,0,0,0,0,0,0,0,0,0,0,0,0,0,0,0,0,0,0,0,0,0,0,0,0,0,0,0,0,0,0,0,0,0,0,0,0,0,0,0,0,0,0,0,0,0,0,0,0,0,0,0,0,0,0,0,0,0,0,0,0,0,0,0],"sum_hessian":[1.44405E5,9.9865E4,4.454E4,3.6663E4,6.3202E4,3.3814E4,1.0726E4,1.5799E4,2.0864E4,2.6566E4,3.6636E4,1.9731E4,1.4083E4,7.899E3,2.827E3,7.882E3,7.917E3,1.1078E4,9.786E3,1.9584E4,6.982E3,1.892E4,1.7716E4,1.669E4,3.041E3,1.1968E4,2.115E3,5.907E3,1.992E3,2.336E3,4.91E2,2.97E3,4.912E3,6.806E3,1.111E3,9.418E3,1.66E3,4.159E3,5.627E3,1.2953E4,6.631E3,3.541E3,3.441E3,2.994E3,1.5926E4,1.6455E4,1.261E3,1.1064E4,5.626E3,1.048E3,1.993E3,6.249E3,5.719E3,1.196E3,9.19E2,2.934E3,2.973E3,6.41E2,1.351E3,1.864E3,4.72E2,2.88E2,2.03E2,2.242E3,7.28E2,3.814E3,1.098E3,1.472E3,5.334E3,4E2,7.11E2,5.037E3,4.381E3,1.033E3,6.27E2,1.912E3,2.247E3,3.667E3,1.96E3,5.727E3,7.226E3,3.73E3,2.901E3,7.67E2,2.774E3,2.79E2,3.162E3,1.354E3,1.64E3,1.5417E4,5.09E2,9.688E3,6.767E3,1.11E2,1.15E3,1.687E3,9.377E3,4.053E3,1.573E3,1.75E2,8.73E2,7.62E2,1.231E3,1.171E3,5.078E3,4.823E3,8.96E2,6.03E2,5.93E2,1.92E2,7.27E2,2.6E3,3.34E2,2.72E3,2.53E2,4.08E2,2.33E2,7.45E2,6.06E2,1.74E2,1.69E3,6E1,4.12E2,2.5E2,3.8E1,4.6E1,1.57E2],"tree_param":{"num_deleted":"0","num_feature":"8","num_nodes":"127","size_leaf_vector":"1"}},{"base_weights":[1.8032335E-1,-2.403165E3,4.1415537E3,-5.1003813E3,-1.1637054E3,2.635491E3,8.0831284E3,-6.207339E3,-4.0360112E3,-2.5495793E3,-3.747109E2,3.1033076E3,7.066766E1,6.6589395E3,1.0778945E4,-6.801561E3,-5.563054E3,-4.5316826E3,-2.960525E3,-2.067406E3,-3.8176514E3,-1.2099097E3,2.4798662E2,2.2106707E3,4.447849E3,-1.0278971E3,1.0812246E3,7.1885034E3,3.9183547E3,9.702836E3,1.2877788E4,-6.9920547E3,-5.826358E3,-5.7912173E3,-4.0449526E3,-4.916898E3,-4.114977E3,-2.111514E3,-3.708936E3,-2.7261157E3,-1.1272113E3,-4.832878E3,-3.2837456E3,-2.2079834E3,-9.239871E2,3.9280814E2,-1.7444279E3,1.682995E3,2.7626963E3,3.456366E3,4.7870664E3,-1.437106E3,2.1316257E1,4.5583875E2,2.0481047E3,6.309711E3,7.9789424E3,3.1859675E3,4.8449585E3,1.03222705E4,6.7844976E3,1.3620854E4,9.344323E3,-2.2303728E2,-2.0174358E2,-2.0550357E2,-1.5721297E2,-1.8982317E2,-1.6857207E2,-8.112178E1,-1.4299727E2,-1.59025E2,-1.3898131E2,-1.4493889E2,-1.19611534E2,-1.0466155E2,-5.2213623E1,-1.0436798E2,-1.8626053E2,-9.3535355E1,-6.850423E1,-4.6966946E1,-1.6480309E1,-1.01046524E2,-1.5685838E2,-6.1853752E1,-1.055597E2,-8.628624E1,-5.37184E1,-2.0670649E1,-5.484489E1,2.5343606E0,4.0056393E1,-5.445876E1,9.1085304E1,4.2791206E1,7.441509E1,4.9297924E1,8.962936E1,6.2625725E1,1.0908581E2,1.2486968E2,1.5823859E2,3.049254E1,-4.9432865E1,-7.148603E0,2.034811E1,-1.6837984E1,2.6692059E1,3.9050606E1,7.751411E1,1.5659897E2,1.9786775E2,2.3348982E2,3.1242078E2,5.205999E1,1.0947898E2,9.392628E1,1.5838585E2,2.3796736E2,3.15714E2,1.9389595E2,2.7712466E2,3.8343008E2,4.5793964E2,2.5735532E2,3.2327542E2],"categories":[],"categories_nodes":[],"categories_segments":[],"categories_sizes":[],"default_left":[0,0,0,0,0,0,0,0,0,0,0,0,0,0,0,0,0,0,0,0,0,0,0,0,0,0,0,0,0,0,0,0,0,0,0,0,0,0,0,0,0,0,0,0,0,0,0,0,0,0,0,0,0,0,0,0,0,0,0,0,0,0,0,0,0,0,0,0,0,0,0,0,0,0,0,0,0,0,0,0,0,0,0,0,0,0,0,0,0,0,0,0,0,0,0,0,0,0,0,0,0,0,0,0,0,0,0,0,0,0,0,0,0,0,0,0,0,0,0,0,0,0,0,0,0,0,0],"id":12,"left_children":[1,3,5,7,9,11,13,15,17,19,21,23,25,27,29,31,33,35,37,39,41,43,45,47,49,51,53,55,57,59,61,63,65,67,69,71,73,75,77,79,81,83,85,87,89,91,93,95,97,99,101,103,105,107,109,111,113,115,117,119,121,123,125,-1,-1,-1,-1,-1,-1,-1,-1,-1,-1,-1,-1,-1,-1,-1,-1,-1,-1,-1,-1,-1,-1,-1,-1,-1,-1,-1,-1,-1,-1,-1,-1,-1,-1,-1,-1,-1,-1,-1,-1,-1,-1,-1,-1,-1,-1,-1,-1,-1,-1,-1,-1,-1,-1,-1,-1,-1,-1,-1,-1,-1,-1,-1,-1],"loss_changes":[1.4373046E12,3.0547896E11,3.1477262E11,3.387215E10,6.845867E10,4.6038663E10,5.6213176E10,5.3607137E9,7.8069924E9,1.3879525E10,2.0749779E10,3.893743E10,6.573272E9,1.3897204E10,1.1317019E10,1.3211402E9,2.3218913E9,1.5913943E9,2.9347471E9,1.0189619E10,3.375104E9,4.860977E9,6.5959475E9,5.676974E9,4.3378934E9,1.218089E9,1.8638784E9,5.5344824E9,1.0405192E9,5.9912684E9,4.372988E9,6.7475866E8,6.863176E8,5.075927E8,8.463565E8,5.44129E8,4.2324787E8,1.1038751E9,1.3927772E9,1.6708321E9,1.7170903E9,1.2308808E9,1.1705139E9,1.05298534E9,2.8132813E9,6.191668E9,5.3027123E8,2.0379238E9,2.3951442E9,8.057119E8,2.9155656E9,1.0565663E9,1.3608778E8,8.2753E8,4.808612E8,1.1531551E9,1.9368346E9,5.7976115E8,4.9371853E8,1.2478382E9,4.052992E8,1.7570038E9,2.3754138E8,0E0,0E0,0E0,0E0,0E0,0E0,0E0,0E0,0E0,0E0,0E0,0E0,0E0,0E0,0E0,0E0,0E0,0E0,0E0,0E0,0E0,0E0,0E0,0E0,0E0,0E0,0E0,0E0,0E0,0E0,0E0,0E0,0E0,0E0,0E0,0E0,0E0,0E0,0E0,0E0,0E0,0E0,0E0,0E0,0E0,0E0,0E0,0E0,0E0,0E0,0E0,0E0,0E0,0E0,0E0,0E0,0E0,0E0,0E0,0E0,0E0,0E0,0E0,0E0],"parents":[2147483647,0,0,1,1,2,2,3,3,4,4,5,5,6,6,7,7,8,8,9,9,10,10,11,11,12,12,13,13,14,14,15,15,16,16,17,17,18,18,19,19,20,20,21,21,22,22,23,23,24,24,25,25,26,26,27,27,28,28,29,29,30,30,31,31,32,32,33,33,34,34,35,35,36,36,37,37,38,38,39,39,40,40,41,41,42,42,43,43,44,44,45,45,46,46,47,47,48,48,49,49,50,50,51,51,52,52,53,53,54,54,55,55,56,56,57,57,58,58,59,59,60,60,61,61,62,62],"right_children":[2,4,6,8,10,12,14,16,18,20,22,24,26,28,30,32,34,36,38,40,42,44,46,48,50,52,54,56,58,60,62,64,66,68,70,72,74,76,78,80,82,84,86,88,90,92,94,96,98,100,102,104,106,108,110,112,114,116,118,120,122,124,126,-1,-1,-1,-1,-1,-1,-1,-1,-1,-1,-1,-1,-1,-1,-1,-1,-1,-1,-1,-1,-1,-1,-1,-1,-1,-1,-1,-1,-1,-1,-1,-1,-1,-1,-1,-1,-1,-1,-1,-1,-1,-1,-1,-1,-1,-1,-1,-1,-1,-1,-1,-1,-1,-1,-1,-1,-1,-1,-1,-1,-1,-1,-1,-1],"split_conditions":[3.3344E4,2.6551E4,4.0465E4,2.4071E4,2.9346E4,6E0,4.5944E4,2.264E4,7E0,6E0,3.0455E4,3.6677E4,3.5797E4,6E0,5.0496E4,6E0,7E0,2.5321E4,5E0,2.9168E4,2.5418E4,7E0,6E0,3.4857E4,3.4381E4,1.9E1,1.8E1,4.2355E4,4.299E4,6E0,6E0,2.1467E4,2.1297E4,2.264E4,5E0,2.4705E4,1E0,4E0,6E0,7E0,3.0786E4,6E0,5E0,2.8192E4,5E0,4E0,3.64E2,4E0,3.171E4,7E0,1.65E2,5E0,3.5016E4,2.9654E4,3.7455E4,1E0,5.0598E4,3.1814E4,1.3E1,1.6E2,4.6531E4,5.3828E4,5.3828E4,-2.2303728E2,-2.0174358E2,-2.0550357E2,-1.5721297E2,-1.8982317E2,-1.6857207E2,-8.112178E1,-1.4299727E2,-1.59025E2,-1.3898131E2,-1.4493889E2,-1.19611534E2,-1.0466155E2,-5.2213623E1,-1.0436798E2,-1.8626053E2,-9.3535355E1,-6.850423E1,-4.6966946E1,-1.6480309E1,-1.01046524E2,-1.5685838E2,-6.1853752E1,-1.055597E2,-8.628624E1,-5.37184E1,-2.0670649E1,-5.484489E1,2.5343606E0,4.0056393E1,-5.445876E1,9.1085304E1,4.2791206E1,7.441509E1,4.9297924E1,8.962936E1,6.2625725E1,1.0908581E2,1.2486968E2,1.5823859E2,3.049254E1,-4.9432865E1,-7.148603E0,2.034811E1,-1.6837984E1,2.6692059E1,3.9050606E1,7.751411E1,1.5659897E2,1.9786775E2,2.3348982E2,3.1242078E2,5.205999E1,1.0947898E2,9.392628E1,1.5838585E2,2.3796736E2,3.15714E2,1.9389595E2,2.7712466E2,3.8343008E2,4.5793964E2,2.5735532E2,3.2327542E2],"split_indices":[6,6,6,6,7,1,6,6,0,1,6,6,6,1,6,0,0,6,1,6,7,0,1,6,7,0,0,6,6,1,1,6,6,7,1,7,1,1,1,0,6,0,0,6,1,1,5,1,7,0,5,0,6,7,6,1,7,7,0,5,7,6,6,0,0,0,0,0,0,0,0,0,0,0,0,0,0,0,0,0,0,0,0,0,0,0,0,0,0,0,0,0,0,0,0,0,0,0,0,0,0,0,0,0,0,0,0,0,0,0,0,0,0,0,0,0,0,0,0,0,0,0,0,0,0,0,0],"split_type":[0,0,0,0,0,0,0,0,0,0,0,0,0,0,0,0,0,0,0,0,0,0,0,0,0,0,0,0,0,0,0,0,0,0,0,0,0,0,0,0,0,0,0,0,0,0,0,0,0,0,0,0,0,0,0,0,0,0,0,0,0,0,0,0,0,0,0,0,0,0,0,0,0,0,0,0,0,0,0,0,0,0,0,0,0,0,0,0,0,0,0,0,0,0,0,0,0,0,0,0,0,0,0,0,0,0,0,0,0,0,0,0,0,0,0,0,0,0,0,0,0,0,0,0,0,0,0],"sum_hessian":[1.44405E5,9.1377E4,5.3028E4,2.8769E4,6.2608E4,3.8369E4,1.4659E4,1.41E4,1.4669E4,2.2712E4,3.9896E4,3.245E4,5.919E3,9.594E3,5.065E3,7.33E3,6.77E3,1.0039E4,4.63E3,1.6457E4,6.255E3,1.704E4,2.2856E4,1.9504E4,1.2946E4,2.836E3,3.083E3,8.039E3,1.555E3,3.352E3,1.713E3,6.127E3,1.203E3,5.883E3,8.87E2,5.211E3,4.828E3,2.171E3,2.459E3,9.676E3,6.781E3,2.153E3,4.102E3,3.793E3,1.3247E4,2.1308E4,1.548E3,9.974E3,9.53E3,3.303E3,9.643E3,2.04E3,7.96E2,1.873E3,1.21E3,3.811E3,4.228E3,8.71E2,6.84E2,2.763E3,5.89E2,1.413E3,3E2,2.297E3,3.83E3,4.34E2,7.69E2,1.421E3,4.462E3,3.12E2,5.75E2,2.209E3,3.002E3,7.26E2,4.102E3,4.59E2,1.712E3,2.254E3,2.05E2,5.13E3,4.546E3,3.855E3,2.926E3,4.6E2,1.693E3,6.63E2,3.439E3,1.456E3,2.337E3,1.0516E4,2.731E3,1.6056E4,5.252E3,1.526E3,2.2E1,7.548E3,2.426E3,1.596E3,7.934E3,3.85E2,2.918E3,4.231E3,5.412E3,1.61E2,1.879E3,5.71E2,2.25E2,5.6E2,1.313E3,5.07E2,7.03E2,7.96E2,3.015E3,3.917E3,3.11E2,2.12E2,6.59E2,1.4E2,5.44E2,2.18E2,2.545E3,5.24E2,6.5E1,9.41E2,4.72E2,2E2,1E2],"tree_param":{"num_deleted":"0","num_feature":"8","num_nodes":"127","size_leaf_vector":"1"}},{"base_weights":[1.8467507E-1,-2.3906836E3,3.9188582E3,-5.0643306E3,-1.2346343E3,2.483524E3,7.8408916E3,-6.259453E3,-4.2116265E3,-2.651512E3,-5.0295294E2,1.4694691E3,3.6484414E3,6.5691733E3,1.0687808E4,-6.952695E3,-5.899573E3,-4.6407637E3,-3.0603496E3,-2.1942688E3,-3.8232126E3,-1.3036469E3,1.12567566E2,1.920849E3,-9.5200543E2,4.0962666E3,1.1352947E3,7.0878833E3,3.8932634E3,9.861126E3,1.3122378E4,-6.7692134E3,-7.528887E3,-6.103276E3,-4.5722295E3,-5.089845E3,-4.222885E3,-2.1521096E3,-3.7919204E3,-2.8421E3,-1.2505901E3,-5.1559233E3,-3.4463909E3,-2.1449624E3,-9.51472E2,2.6074316E2,-1.8134275E3,1.599176E3,2.6765347E3,-2.1893489E3,-5.816763E2,3.4301172E3,4.7218975E3,2.2795468E2,1.7962012E3,6.311141E3,8.0857783E3,3.1718958E3,4.897721E3,1.0477368E4,6.957019E3,1.3858639E4,9.66187E3,-9.292684E1,-2.0395503E2,-1.8619145E2,-2.296304E2,-2.0030244E2,-1.7581377E2,-9.237831E1,-1.5767711E2,-1.6308356E2,-1.446993E2,-1.4978523E2,-1.2254964E2,-1.0749227E2,-5.5443485E1,-1.08142815E2,-1.8209947E2,-9.481755E1,-7.110715E1,-4.8280712E1,-1.7335896E1,-1.194883E2,-1.7255942E2,-6.822241E1,-1.10593216E2,-8.323851E1,-5.0047565E1,-2.094661E1,-5.504056E1,-1.3186731E0,3.5037502E1,-2.3517795E0,-6.0619427E1,1.5227986E1,5.3206375E1,8.917876E1,4.9113464E1,-8.023643E1,-3.815826E1,-2.9618132E1,1.2709769E0,9.392086E1,1.3335669E2,1.1444108E2,1.512685E2,1.0843686E2,1.01750165E-1,2.3493586E1,6.4534134E1,1.8274113E2,2.3253305E2,2.0322496E2,2.51173E2,7.477148E1,1.2645395E2,1.0773161E2,1.606363E2,2.8968106E2,3.3864783E2,1.7778185E2,2.2439261E2,3.8615854E2,4.4423047E2,2.3835243E2,3.033423E2],"categories":[],"categories_nodes":[],"categories_segments":[],"categories_sizes":[],"default_left":[0,0,0,0,0,0,0,0,0,0,0,0,0,0,0,0,0,0,0,0,0,0,0,0,0,0,0,0,0,0,0,0,0,0,0,0,0,0,0,0,0,0,0,0,0,0,0,0,0,0,0,0,0,0,0,0,0,0,0,0,0,0,0,0,0,0,0,0,0,0,0,0,0,0,0,0,0,0,0,0,0,0,0,0,0,0,0,0,0,0,0,0,0,0,0,0,0,0,0,0,0,0,0,0,0,0,0,0,0,0,0,0,0,0,0,0,0,0,0,0,0,0,0,0,0,0,0],"id":13,"left_children":[1,3,5,7,9,11,13,15,17,19,21,23,25,27,29,31,33,35,37,39,41,43,45,47,49,51,53,55,57,59,61,63,65,67,69,71,73,75,77,79,81,83,85,87,89,91,93,95,97,99,101,103,105,107,109,111,113,115,117,119,121,123,125,-1,-1,-1,-1,-1,-1,-1,-1,-1,-1,-1,-1,-1,-1,-1,-1,-1,-1,-1,-1,-1,-1,-1,-1,-1,-1,-1,-1,-1,-1,-1,-1,-1,-1,-1,-1,-1,-1,-1,-1,-1,-1,-1,-1,-1,-1,-1,-1,-1,-1,-1,-1,-1,-1,-1,-1,-1,-1,-1,-1,-1,-1,-1,-1],"loss_changes":[1.352954E12,2.7720437E11,3.080228E11,2.7563393E10,6.491181E10,4.731832E10,5.3005976E10,2.770862E9,7.7933445E9,1.1415454E10,2.0351134E10,2.3412904E10,2.0977123E10,1.4041416E10,8.977646E9,3.556475E8,1.9799409E9,2.1384888E9,2.8449546E9,9.374466E9,2.9873603E9,5.3154775E9,6.6633687E9,4.38435E9,1.5411098E9,6.5782415E9,1.6912512E9,6.5288274E9,1.178579E9,5.9796357E9,2.78084E9,2.936832E8,1.0514022E8,8.5694874E8,9.963438E8,4.85376E8,6.132531E8,8.277166E8,9.9158016E8,1.359315E9,1.5065549E9,8.9788826E8,1.3052477E9,1.5847342E9,2.828883E9,5.992725E9,5.995438E8,2.4099185E9,1.6536576E9,3.4157005E8,6.5609837E8,2.3164355E9,2.351612E9,9.0499085E8,5.8514944E8,1.4648279E9,1.3389496E9,6.714491E8,3.908526E8,1.7478451E9,2.7632845E8,6.905528E8,7.71031E7,0E0,0E0,0E0,0E0,0E0,0E0,0E0,0E0,0E0,0E0,0E0,0E0,0E0,0E0,0E0,0E0,0E0,0E0,0E0,0E0,0E0,0E0,0E0,0E0,0E0,0E0,0E0,0E0,0E0,0E0,0E0,0E0,0E0,0E0,0E0,0E0,0E0,0E0,0E0,0E0,0E0,0E0,0E0,0E0,0E0,0E0,0E0,0E0,0E0,0E0,0E0,0E0,0E0,0E0,0E0,0E0,0E0,0E0,0E0,0E0,0E0,0E0,0E0,0E0],"parents":[2147483647,0,0,1,1,2,2,3,3,4,4,5,5,6,6,7,7,8,8,9,9,10,10,11,11,12,12,13,13,14,14,15,15,16,16,17,17,18,18,19,19,20,20,21,21,22,22,23,23,24,24,25,25,26,26,27,27,28,28,29,29,30,30,31,31,32,32,33,33,34,34,35,35,36,36,37,37,38,38,39,39,40,40,41,41,42,42,43,43,44,44,45,45,46,46,47,47,48,48,49,49,50,50,51,51,52,52,53,53,54,54,55,55,56,56,57,57,58,58,59,59,60,60,61,61,62,62],"right_children":[2,4,6,8,10,12,14,16,18,20,22,24,26,28,30,32,34,36,38,40,42,44,46,48,50,52,54,56,58,60,62,64,66,68,70,72,74,76,78,80,82,84,86,88,90,92,94,96,98,100,102,104,106,108,110,112,114,116,118,120,122,124,126,-1,-1,-1,-1,-1,-1,-1,-1,-1,-1,-1,-1,-1,-1,-1,-1,-1,-1,-1,-1,-1,-1,-1,-1,-1,-1,-1,-1,-1,-1,-1,-1,-1,-1,-1,-1,-1,-1,-1,-1,-1,-1,-1,-1,-1,-1,-1,-1,-1,-1,-1,-1,-1,-1,-1,-1,-1,-1,-1,-1,-1,-1,-1,-1],"split_conditions":[3.3152E4,2.6309E4,4.0465E4,2.35E4,2.8986E4,3.6082E4,4.6473E4,2.2215E4,7E0,6E0,3.0293E4,6E0,6E0,6E0,5.1891E4,6E0,7E0,2.4803E4,5E0,2.8924E4,2.4289E4,8E0,6E0,3.6464E4,2.7634E4,3.7821E4,1.4E1,4.299E4,4.3324E4,6E0,6E0,6.8E1,1.03E2,2.1925E4,5E0,2.4289E4,1E0,4E0,6E0,2.7774E4,3.0946E4,7E0,5E0,2.8192E4,5E0,4E0,3E0,7E0,2.55E2,2.013E3,1.8E1,4E0,3.4844E4,6E0,2.006E3,4.6531E4,1.6E2,1.9E1,1.4E1,4.853E4,4.7793E4,5.3828E4,2.006E3,-9.292684E1,-2.0395503E2,-1.8619145E2,-2.296304E2,-2.0030244E2,-1.7581377E2,-9.237831E1,-1.5767711E2,-1.6308356E2,-1.446993E2,-1.4978523E2,-1.2254964E2,-1.0749227E2,-5.5443485E1,-1.08142815E2,-1.8209947E2,-9.481755E1,-7.110715E1,-4.8280712E1,-1.7335896E1,-1.194883E2,-1.7255942E2,-6.822241E1,-1.10593216E2,-8.323851E1,-5.0047565E1,-2.094661E1,-5.504056E1,-1.3186731E0,3.5037502E1,-2.3517795E0,-6.0619427E1,1.5227986E1,5.3206375E1,8.917876E1,4.9113464E1,-8.023643E1,-3.815826E1,-2.9618132E1,1.2709769E0,9.392086E1,1.3335669E2,1.1444108E2,1.512685E2,1.0843686E2,1.01750165E-1,2.3493586E1,6.4534134E1,1.8274113E2,2.3253305E2,2.0322496E2,2.51173E2,7.477148E1,1.2645395E2,1.0773161E2,1.606363E2,2.8968106E2,3.3864783E2,1.7778185E2,2.2439261E2,3.8615854E2,4.4423047E2,2.3835243E2,3.033423E2],"split_indices":[6,6,6,6,7,6,6,7,0,1,6,1,1,1,6,1,0,6,1,6,7,0,1,7,7,6,0,6,6,1,1,5,5,6,1,7,1,1,1,6,6,0,0,6,1,1,0,0,5,4,0,1,7,0,4,7,5,0,0,6,6,6,4,0,0,0,0,0,0,0,0,0,0,0,0,0,0,0,0,0,0,0,0,0,0,0,0,0,0,0,0,0,0,0,0,0,0,0,0,0,0,0,0,0,0,0,0,0,0,0,0,0,0,0,0,0,0,0,0,0,0,0,0,0,0,0,0],"split_type":[0,0,0,0,0,0,0,0,0,0,0,0,0,0,0,0,0,0,0,0,0,0,0,0,0,0,0,0,0,0,0,0,0,0,0,0,0,0,0,0,0,0,0,0,0,0,0,0,0,0,0,0,0,0,0,0,0,0,0,0,0,0,0,0,0,0,0,0,0,0,0,0,0,0,0,0,0,0,0,0,0,0,0,0,0,0,0,0,0,0,0,0,0,0,0,0,0,0,0,0,0,0,0,0,0,0,0,0,0,0,0,0,0,0,0,0,0,0,0,0,0,0,0,0,0,0,0],"sum_hessian":[1.44405E5,8.9686E4,5.4719E4,2.7072E4,6.2614E4,4.006E4,1.4659E4,1.127E4,1.5802E4,2.1322E4,4.1292E4,2.1418E4,1.8642E4,1.0135E4,4.524E3,3.845E3,7.425E3,1.1509E4,4.293E3,1.5339E4,5.983E3,1.7946E4,2.3346E4,1.8053E4,3.365E3,1.5822E4,2.82E3,8.488E3,1.647E3,3.381E3,1.143E3,2.926E3,9.19E2,6.434E3,9.91E2,5.542E3,5.967E3,1.917E3,2.376E3,9.094E3,6.245E3,1.316E3,4.667E3,5.294E3,1.2652E4,2.1679E4,1.667E3,1.2665E4,5.388E3,7.74E2,2.591E3,7.666E3,8.156E3,1.189E3,1.631E3,4.777E3,3.711E3,9.61E2,6.86E2,2.787E3,5.94E2,9.4E2,2.03E2,2.4E1,2.902E3,8.4E1,8.35E2,1.906E3,4.528E3,3.13E2,6.78E2,2.402E3,3.14E3,9.01E2,5.066E3,3.34E2,1.583E3,2.198E3,1.78E2,5.426E3,3.668E3,4.072E3,2.173E3,4.46E2,8.7E2,7.95E2,3.872E3,2.279E3,3.015E3,9.834E3,2.818E3,1.6229E4,5.45E3,1.78E2,1.489E3,1.745E3,1.092E4,4.192E3,1.196E3,5.05E2,2.69E2,1.57E3,1.021E3,5.923E3,1.743E3,2.132E3,6.024E3,7.3E1,1.116E3,4.24E2,1.207E3,4.149E3,6.28E2,6.7E2,3.041E3,5.84E2,3.77E2,1.8E2,5.06E2,1.391E3,1.396E3,2.04E2,3.9E2,4.68E2,4.72E2,4.6E1,1.57E2],"tree_param":{"num_deleted":"0","num_feature":"8","num_nodes":"127",